solver_type L2R_L2LOSS_SVC_DUAL
nr_class 2
label 1 -1
nr_feature 5000
bias -1
w
0.9803262891117719 
-0.310104054296145 
0.5530038428322837 
-0.3817589783715298 
-2.184447529866126 
-1.380346976182389 
-0.9123817344378852 
9.027208038479232 
-0.6643740173244481 
-0.5339621608515914 
-1.60548916642777 
-0.3166883098217413 
-0.3440070523063977 
0.08778812500859211 
-1.153802164881689 
-1.291908868346351 
-0.1394788746533367 
-0.008872923272245032 
7.974862378463291 
-1.432731106308097 
1.387783916623553 
0.7360631185442048 
-1.065683580972972 
-4.325168061227492 
0.01407057976849637 
-2.069062512753113 
0.133195341526673 
-0.004462804747115547 
-7.959288087977038 
-1.893960880027807 
-0.01634154912668387 
-1.519449313616504 
-0.2435250672399459 
-0.01369875490234578 
0.1368585893960045 
1.307909259401452 
0.07207587688404303 
0.777564417272838 
-0.9710225079853143 
-0.7617763075698695 
2.674171327417572 
-0.2026818463002538 
-0.06140205596314605 
0.4397239794531288 
-0.6104351659264731 
1.359990353610914 
0.02414827003712937 
-0.673536175137044 
-3.105321572458298 
0.8777076616714572 
-1.05691773719998 
8.126165009720241 
0.3946480863189112 
0.3271009101579435 
0.5408954065918992 
-0.5856638583905727 
-1.685849858798968 
-1.45263747210163 
-0.961566054653849 
-0.3561422483961421 
1.678451683194011 
0.8952219453119339 
-0.3723423863828284 
0.1536991196217996 
-0.9400675614469782 
-0.7186972781172909 
-0.3127874185719166 
4.53183730857692 
-2.958252232525393 
-0.2080504858178673 
0.02491569729371454 
0.1626893409135626 
0.2537590912971102 
0.2049456881189636 
-1.722401572682271 
-0.03996415068035584 
-0.234169495236335 
-0.5451873427880973 
-0.3117511863434342 
-2.230474614494614 
0.02007394025306826 
-0.5281005918394087 
-0.7095276250200163 
4.235226646996594 
-0.9234317682060764 
-1.020128140774862 
-0.2666398301470914 
-0.1103127631197564 
-0.09709138643470328 
0.1433636661876334 
2.411436182150692 
-2.294469094459381 
0.3168062763540523 
-0.3178804126185958 
0.5785264827781752 
-1.994750171840391 
-0.5998231869637547 
0.2380067339754902 
-1.962966685588588 
-0.1655475652146494 
-0.4038237627631848 
-0.0413129770157899 
-1.179608798494912 
-1.708331445241168 
0.07304827026708277 
0.2572894088324296 
-2.329725704954278 
-0.087034149639291 
-0.4700931156848265 
0.1252958211665522 
-0.05138183080427051 
-2.779092014878099 
-0.1294444436022987 
-0.537043169805322 
0.2724577840214368 
-0.5256187644745596 
-0.1909175128084407 
0.6769488081194422 
0.1488477735201305 
-0.5825701134455085 
-0.2398487316753953 
-0.0606583324985672 
0.08228660411268025 
-0.4185468646355586 
0.1314359459946921 
-1.014186078873948 
-2.503071005169789 
0.207808206074798 
-3.838501861749721 
-0.2672831480490546 
0.5489626410315613 
-4.6623982417259 
-0.6495689108534862 
-0.4640909332093737 
-0.7486505737648118 
-0.08402241558021105 
1.32250929943833 
2.302175081826057 
-0.8084152849502222 
-0.4832056381723475 
0.9039150866905383 
-1.845552700725466 
-2.859230711195481 
-1.348370595129602 
-0.285284150903967 
0.3830802110289566 
-0.2064495259524513 
-0.3295439185062647 
-0.2679207149350029 
-1.750176700561285 
-1.070946968379489 
-0.8626551873990476 
-0.2480040566287796 
1.371891117701448 
-1.110273821063377 
-0.7953322596320588 
-1.085948246741323 
2.241522293226829 
-0.1845121747955947 
1.804258172578097 
-0.1753245058316038 
-0.1351436443518219 
-1.094127860335514 
-1.007775459471933 
-1.428489377250746 
0.8348810755010699 
-0.5712203935023834 
0.1269245233132528 
-0.3705542189369367 
-0.05850826250396721 
2.260461589609016 
-0.4064543087264524 
0.6338896695395573 
0.7979468611829129 
-1.128865762420153 
-0.3755795173296804 
0.4924696135811393 
0.08799421935332601 
0.862996842517528 
-0.9440706424265428 
-0.4506281772466346 
2.043193278806642 
0.2418259423894802 
-0.7959548340681641 
-0.7047598508405757 
-0.3557638065598033 
-0.5692661283672015 
-0.2775332226436774 
-4.734449739567079 
0.08826149209573665 
-0.1772573484957571 
3.194276348607414 
0.08245008545340611 
-0.2504365447621741 
-5.325256894210696 
-0.6299729678685864 
0.01519606214891379 
0.4444298464573535 
-0.3146227878589546 
-0.1487272822066239 
-0.2140362049861984 
-1.721179881687945 
-4.420131543327691 
-0.3562017410837894 
-0.09970502430020631 
-0.1336265783677814 
-0.3429534722853699 
-0.6182831754219561 
-2.995945316643845 
-1.310678701052403 
-0.3911514894658785 
2.898699104491539 
0.9164888834172952 
-1.518160323643506 
-0.2443067315244939 
-0.1853140657467492 
1.944234132952257 
-0.5750866808459674 
1.287589525520672 
0.0008434941058763582 
-1.250147898091185 
-0.08544572813681464 
0.0009976295809089823 
1.040977047213318 
0.0486756365230382 
0.2995697232155446 
0.6942280115941312 
-0.6002389859650491 
-0.345504440827625 
-1.20271621646687 
-0.4545475747105674 
-0.2162951465658596 
-0.3623801603161862 
1.947807604136276 
-1.417647218444319 
-2.764281984921092 
-0.05042362100765967 
0.8992839270074356 
0.6782909513485145 
0.1111066546749803 
-1.043110076963152 
0.2394156915560921 
-0.9490255114277022 
-0.7800840732478813 
-0.8156215881217665 
0.2064631991186589 
-1.762488440440755 
-0.3812120905740924 
-0.03587557887481563 
-0.4196549334505738 
0.6026194490095138 
-0.7798117238363195 
-1.985719419522797 
-0.02560070813342398 
0.02106206119889891 
0.992063532192853 
-0.2958616427559935 
-0.3369167603082945 
-1.2869707764125 
-0.4748236652935384 
0.1883380838376734 
0.4133683017527871 
-0.9561515832923462 
-0.443823425884904 
0.2610198223105905 
-0.4765290827372305 
0.5656864364413422 
0.03511127291730567 
0.2243107711886393 
-0.9609320355109878 
-0.9645129466361825 
0.6729392601523441 
-0.7256688290765883 
-0.1248014762908327 
-0.6641207908493318 
-1.370383929448141 
0.8539081705859649 
0.1301019443988569 
0.1706646386608256 
0.9065037339553657 
-0.2831011227469867 
-0.6965075834852382 
-1.997546627939038 
-0.7593455947255139 
-1.860098627587972 
0.1438187917396649 
-0.3730155561011216 
0.5506004699663086 
0.1396768253516197 
0.4389549215863711 
0.3593795724784742 
-1.34606739464312 
1.363343061356463 
-0.1346180786222831 
1.617352450317011 
0.3164218624248861 
-0.3234014166931609 
0.3051773611148247 
4.830221365447106 
-0.4493603812541139 
2.159906433612219 
-0.0564104420862912 
-2.397965568688143 
2.646181534758084 
1.053780932449943 
-0.09594251907773171 
-0.3193701341177585 
-0.4752399327540186 
-0.8098761510275335 
-2.09740616059769 
-1.387778780781446e-17 
0.2125582937335198 
2.750052332148745 
-0.8703772094898474 
-0.8466255789881794 
3.327554479944609 
-0.07643069281266612 
-0.9330773574323129 
0.05711259470306896 
-0.3798049287876619 
0.2332136569178827 
-0.9890782279401551 
-0.3283476211467889 
0.7837988517673181 
0.9006298471473279 
-0.4714901353586352 
0.1060840181083494 
1.947004737248551 
0.2546671762228568 
1.732387278986768 
0.5220704597865643 
-0.1892496338101095 
0.4670148258807447 
-1.038451763526176 
-0.4299395309584657 
-0.9861040436974646 
-0.07720398437631164 
1.506046617369637 
-1.140402549247867 
-0.3161908062241341 
-3.503939132587038 
-2.760606105068192 
0.08382138955968843 
-1.47817979578609 
-0.3833386045294125 
-0.07411626021368672 
-1.825331320623099 
-1.754716226259171 
0.3059227473368797 
-1.12716198438389 
-0.9996698400629802 
1.10697148359953 
-0.09359840657391016 
-0.981082005474981 
-1.417903171720716 
-0.9076802945958509 
-0.6134347754300296 
-0.02789588512676735 
-0.2779504861188971 
0.1639417649790618 
-0.5699438342142886 
-1.505346427725527 
0.6996505653337032 
2.180691943898851 
1.008824544038399 
-0.07300043520554547 
-0.2555737663650999 
-1.037802016624682 
0.8437975166340695 
-0.7029982117715683 
-0.9203254425748159 
0.11501336366881 
0.03434881467844284 
-2.300153016989147 
-1.663032890576345 
-0.1149620642715001 
0.1814855004614595 
0.6125782786657148 
0.7794180283180304 
2.148319469156392 
-0.3544313927098647 
0.3319207875897511 
-0.3634358447864375 
-0.9064926245394697 
0.008182323283663454 
0.2645419059041674 
-0.2672537701455903 
1.467817460259223 
-0.5183012528054208 
-0.2827282960292772 
-0.4523735026813489 
-6.938893903907228e-18 
-0.7092610005020292 
-0.6205132313232087 
0.52614881239878 
-0.5320669376315246 
3.286783673865858 
-0.2525922584385141 
-2.170344093255149 
0.02604386708742123 
-0.09454108099085685 
0.7682139556228894 
-0.1180241904194422 
-0.4823292006875218 
-0.2788114865815005 
-0.4894795441589337 
-0.3433149462286625 
-0.01023551512816247 
0.2477545585756151 
-0.103443955539902 
1.290923141184586 
-0.2893556713516947 
2.698413140026423 
-0.2054727107650836 
-2.273173373783571 
0.9680811022603129 
-1.164807846242252 
-0.1199663196612993 
0.2152931006466786 
-0.1620189611146443 
-0.1003032345099297 
-0.9449856107355498 
0.8670349548939871 
2.379692762882933 
-0.2068803041166258 
-0.6404532069457384 
-1.182465446086273 
-0.1461160799140442 
0.7901495108225279 
0.940579822105297 
0.09238094007288238 
-0.6611137670016116 
-1.238271787343511 
0.2443611476723123 
-0.7529523938813434 
0.8935102813893826 
0.1779828053775106 
-1.269744977152896 
-0.1582098996553645 
-2.722687972394235 
-0.1003487699143435 
2.639653411945263 
-0.2185756834556322 
-0.7547716305317861 
0.2314240034971939 
-0.2706976504812114 
-0.4460010110481361 
0.06155779201299884 
0.7647852280909654 
-0.5963522810097296 
0.2400322598005702 
-2.116763697404749 
-2.749626968408696 
-0.01669022828755019 
-0.5967760093773636 
0.6746317153097378 
-0.01484891165866121 
1.701963569255124 
0.1750793776316901 
-1.887615621526565 
0.1139693737856688 
-0.5106139227059312 
0.6565984903225847 
1.547974101978584 
-0.008456926413796429 
-2.051993901567418 
-0.05572760869271784 
0.444670439284011 
0.1976640733496864 
-1.309354621076259 
-0.4797110289803687 
6.894589572182035 
-0.7718006049395705 
-1.139343006059679 
-3.231261544945607 
0.2534637805352186 
0.2096868435714557 
-0.3228865745879403 
-1.136813635862 
-0.07101308098006424 
-0.5549653467898032 
2.205990134888421 
-0.06308287427113325 
-1.689010600164485 
-2.269635340173387 
0.2387264139449083 
3.175007009408087 
-1.221690200103963 
-1.594622204232587 
-0.6763089807974174 
0.2817292774276389 
-0.1625748710069864 
-1.047062919320469 
-0.625309536126834 
0.351291134455572 
-0.6216025644208241 
0.8535214421899192 
-1.588710250724281 
-0.5111467309397859 
-0.2441836727354138 
-0.2205415647466504 
1.343112253983529 
0.4454002895323149 
2.286172408931804 
-1.370037525735378 
0.6912681632123333 
-0.0467928272451391 
0.6658562730804665 
0.339494061655757 
-2.320559029574584 
-0.1212535742952613 
1.194300584373808 
-1.843970345354146 
-0.6848570844327277 
-0.2310197464263288 
-0.1049654862207781 
-1.792757809471948 
-0.7802037824242011 
0.6540757997266685 
0.6039921280922047 
1.745895958257558 
-0.01420544992115768 
-1.091091420934004 
-1.126998371385843 
-0.3847579453185178 
0.5799371322873988 
-0.9923544886172746 
-0.8385747972547046 
-1.093505711761407 
0.1966690411900028 
-0.09472035591886634 
1.929500906219056 
-0.5560807090330269 
-0.8233440313211353 
-0.3023035654315275 
0.9901994346144326 
2.307276464013153 
0.2847842421778664 
-0.2297175986209206 
0.5656570526259398 
-0.7778093914015598 
0.305041156342471 
-0.9609219275490557 
-0.8288976768985359 
0.4230894091970985 
-0.1682332600186929 
-0.2685444372995203 
2.366393456991047 
-0.7268928587776252 
0.3834701763382782 
-0.675422418810472 
-0.1777183774593755 
1.694226254387319 
-0.4998601342149457 
-0.2284681455675407 
-0.06328808667530637 
0.07222695972659234 
2.256422484080939 
-0.6463343780693152 
0.526181772680655 
0.8002660450896082 
-0.5415034443362526 
1.209235159720137 
0.09989521488655806 
-0.9582743227784338 
-1.22248638585628 
-1.531099913344875 
-0.5030605896735947 
-1.106867181841445 
-0.3057507965169806 
0.08497636478319584 
3.235498258556313 
0.9610331627631408 
-2.369048455722323 
0.1804990901475189 
4.43674378336086 
0.1232482682642369 
0.01816899077655683 
0.4027126311120666 
0.8650574912776343 
0.9459733445512302 
-0.1766674287999913 
0.1531080875900776 
-1.066131967450735 
0.07448709201507538 
0.1932214609928372 
-0.02484713764019403 
-0.2456802053868232 
-0.03757545449543961 
-0.9771778356227989 
-0.1448209027628786 
0.4634304343445423 
0.3738827410205079 
0.6671952125098011 
0.2910980542345961 
0.02385208357210742 
-1.16679948051098 
-0.5719656209597989 
-0.7935596602667153 
-0.4974587053551548 
-0.2117106433690471 
-0.1774652877450681 
-0.8596457046197282 
1.352820918798201 
1.360827059992301 
0.3651611798225367 
1.294923998610832 
-0.8454039957924137 
-0.6195942301844709 
-0.4085934023656157 
-0.847805460545905 
-0.6380997098998997 
-0.7657453206201043 
0.5565605883899223 
0.2286621920791942 
-0.4876337893577908 
-1.620498825677897 
-1.266381087737301 
-0.6075034498761019 
0.688811397773517 
-0.4682207745189323 
-0.4340101660318263 
-0.1543371447237286 
0.7889391879538862 
-1.352691977700804 
0.1691424608063489 
0.1054695582562903 
-0.4266499173682573 
1.768358109987807 
1.03370189218275 
0.6070467431763018 
0.2670492246377593 
0.5182531771568708 
0.6999859184736561 
-0.285244264618506 
-0.4595224862903097 
0.7110230558416687 
-0.08326882597584026 
-0.2192574763032721 
0.3712008430210381 
0.247485923523003 
-0.9188060271076187 
0.4219637091597505 
-0.4130744870323557 
0.854535508029011 
-0.1581960150627321 
3.052007057139563 
-1.721319783916186 
2.541102843901659 
1.370924402642122 
0.3802374660928899 
0.4748870134002217 
0.7881968709438841 
-1.163927925122367 
1.278275092635109 
-0.5519586636024677 
-0.7982558253651079 
0.2297388343957501 
-0.1580803844616925 
-0.824596225725595 
-0.7224020447500856 
-0.5498490102286927 
-1.254383783024305 
-0.3483216345041383 
-0.2402313516253687 
-0.4914677958602639 
-0.7645152857337522 
-1.856531869096186 
-0.225905705212735 
-0.6269558370119651 
3.320509055674535 
-0.2164002825957116 
-0.07827393311968603 
1.20266526718534 
-0.4197556631607029 
-0.3953751851372605 
-2.155023384722113 
0.9541288552091954 
0.6161921923433745 
-0.0676057477266169 
-0.7988123250394893 
-0.8980875118402682 
-0.5706218080135858 
0.4217641417791039 
-0.3998727411519314 
1.625520387488681 
-2.408156733459757 
-0.3290418176479722 
-1.416869940251082 
1.740053176120079 
-0.05943683709762902 
0.0314459107963075 
-0.6844794390238161 
4.781443538470151 
0.3706438301942299 
-1.706411811063616 
0.03226518387020684 
-0.2809693940451386 
-1.151681262169977 
0.6345746622112919 
0.5387415505191512 
2.447536805675472 
0.6030756294959705 
3.331305088489982 
0.193938392376783 
0.9622190199051359 
-0.760826720726764 
-0.5082103778714328 
-0.9261702536104938 
1.048867536721377 
-0.2385212588227602 
-0.4468619442411134 
-0.1179433087375756 
1.838996418957711 
0.4118742824651072 
0.02191326064127882 
0.3247331845567734 
-0.09144559306100632 
-1.028494984630916 
-1.850836051197871 
-1.06265978489557 
-1.693179519721516 
0.2947237107872203 
-1.189340440838835 
-0.506752052813468 
-2.098202983301021 
-0.1840516307681868 
1.053436818288638 
1.054532783740352 
3.425869533582756 
0.2562465251839253 
-3.743760372534923 
2.790428386305058 
-0.6158564322965577 
-0.6615983375365448 
-0.2381382053959653 
-0.8549765778930425 
3.961420685591558 
0.9952341760655714 
-0.9495780728486439 
0.9308414854270384 
-0.08255416635530748 
-0.553488100443271 
0.1409053426481507 
-3.857067508842703 
-2.177095537312167 
1.109830722783408 
-0.615949087748591 
-0.1971026713376943 
0.2752427205969675 
0.8325832320069563 
-0.569349211721385 
-0.3737037408869327 
0.2186593093172471 
-0.4972769450971742 
-1.417476465025522 
-0.02354489119481288 
0.5198086456834906 
-1.821554726322888 
0.4602076306846002 
-0.2633115100312393 
-1.210241759787701 
0.9992743052953106 
-0.5324267568079583 
-1.015134433111031 
-0.6181651142921888 
0.04243854003187594 
-0.2265399939674555 
1.952079294934621 
-0.2833300578834427 
0.8459057954421074 
-0.1728979034180184 
0.1637827925620016 
-0.6083937223361754 
-0.8195204824438762 
-0.7757470622029553 
0.2336149803051 
-0.4540360073708843 
-1.257138821116713 
1.069027764213313 
-0.633547758747709 
0.6033103351311322 
2.100389596419197 
-0.04792652727166347 
0.7409794953254232 
0.4982158825796324 
0.5086841553182007 
0.8626638677864524 
1.649981647377904 
3.838783504863646 
4.592661316754074 
-1.799859180548373 
2.830761332317241 
1.132944954179051 
-0.3564478523189443 
1.060347059289681 
6.191565366877789 
-0.7437290479709191 
0.6170887873411646 
0.5934044322874424 
-0.08411904502579402 
0.19443157826172 
-1.003470383623181 
-2.403484858645369 
0.2438718513654101 
-2.597775991153294 
-0.5597468601051712 
1.768116223623688 
-2.790519381460168 
-0.07432042861759146 
0.3509430103571166 
0.2657705255484756 
0.6747578320052915 
1.013385503241578 
-0.8839463286598449 
1.237558462516909 
-0.1405425711574611 
-0.7012625499808262 
0.05170509945999199 
-0.3126325684688259 
0.9155699425543686 
0.3805666529036419 
1.124898174444059 
-0.7069862496773053 
-0.0708306083511967 
0.00836657572267308 
-0.3858881657993541 
-0.3511110284460873 
1.553224451578249 
0.2243137816098012 
-0.827637512775484 
0.08658029955221089 
-1.539031483494984 
0.293810025891125 
0.6697010193622014 
0.3755237956252097 
-1.535093047815139 
-0.2481768885640769 
1.129894002801437 
2.557893089538315 
-0.06849312644065718 
-0.5311659193758089 
-1.323293540742618 
-0.5586972300329913 
-0.4834114291985624 
0.5635424801897652 
-0.09276615060601279 
3.618617496415452 
0.234726112157937 
0.380194925090278 
0.6478949644088017 
-3.428663525210765 
-0.8437045502277074 
0.2047694697501052 
-0.04347414395950103 
1.305069470827376 
4.881287934219362 
0.5010263364343304 
-0.3275612722446331 
-1.428198164502317 
0.06840447567174641 
-0.5563133892369005 
-0.333094000307203 
3.138608584275047 
0.6483927706165569 
1.310515944933839 
0.1781308613511302 
-0.8401679363437556 
-2.034744648007705 
1.365783719417639 
7.527146616445306 
2.984998620885434 
-1.642306530692601 
-0.01335968225673124 
-1.092908648803217 
0.4468803122555067 
-0.5757611304748097 
-5.403212761957359 
0.9007026670775328 
-0.2700684375959165 
3.096698610475946 
-0.6278503262782534 
-0.04075855863067201 
1.946484731909867 
-0.5383389617956184 
-0.6223539660118574 
-0.2249315306259994 
1.6737268426432 
-0.4341022474661648 
-0.3801381078419326 
-0.2013397475358641 
-0.4355904797872853 
-1.221409883750317 
-0.6177129629809305 
-0.1527713089160032 
-0.2612081930008741 
-0.3796508758265202 
-2.327123359109152 
0.6817074564588294 
-5.204170427930421e-18 
-0.7781244401692835 
0.8004795689934456 
-0.77053673608444 
-0.6100235951679002 
-0.8838854094950755 
1.267957686393706 
-0.5545101376306015 
2.338342774348426 
0.5822906188993343 
-1.136201033905562 
-0.7339578398505268 
0.01895765906821038 
-2.262096416952209 
5.255509147105379 
1.1904991301787 
-0.4835986696912543 
-0.3564715350110777 
-2.350325895564441 
1.903948618133506 
0.9657976237007411 
-1.239316770397451 
-1.445022551444821 
-0.9059726162854433 
0.1849298973778509 
-0.8116476435356968 
-0.4288667685532793 
0.09289644126992552 
-1.652517862209682 
-3.192406960669437 
-4.267444316413915 
-0.6184469682268943 
-0.5719689094913151 
0.1821706784943179 
-0.8921377302893571 
-0.3437366455626855 
-0.2696763799126202 
0.9651864534589074 
-0.5460168142177112 
4.098051624881167 
-3.307926072594764 
1.158550730235417 
0.2909638653836803 
-0.6052405298390053 
0.5085283341595193 
-0.643063920016993 
0.104085798161916 
-0.1650257645367582 
-0.1823293141374758 
-1.635640022939384 
0.6331600904188097 
-0.03067812998904167 
1.487678473756433 
0.6761402703150629 
0.2331747716102268 
0.2746254562021112 
-0.7683842483394944 
-0.4300323302289102 
-0.7996402719769361 
0.06483021641074048 
-0.1631214338511273 
0.0007320579422702099 
-0.3320040012172562 
-0.5191780027150599 
-0.07192429937702119 
0.6703155083899746 
-0.5937969370775725 
-1.155262204522621 
1.634785606448236 
0.8839779252885123 
-0.4433233266320287 
-2.309598053707377 
-0.1065771499125931 
0.5810857580363149 
-0.7339322423475351 
-0.1615778347562185 
0.3756293615152431 
0.2788530770321568 
-2.823346143577066 
-0.5159387447212486 
-1.228233115877513 
-1.716511676726049 
0.1992953165443308 
-1.31182714888096 
-0.1742930192466728 
-0.5302993791827468 
-0.3225213119608321 
0.7848766423807972 
0.1843203645732601 
0.5700455653148414 
0.601864398796638 
-0.5104600349631924 
1.848264553375292 
-0.01390257268287966 
0.1201373575333303 
5.694690028605013 
0.1044701271655782 
-1.251327369046522 
0.5225831881789014 
-0.2914781054569368 
-0.07069388194395357 
1.075907108561882 
-0.2354767446694791 
-0.3258813415371906 
0.5935528753580704 
0.9227705663246 
-0.2860471659954336 
-0.1886987575432926 
0.07666965455780758 
3.987786244371455 
-0.4529945342652266 
1.328471489096367 
0.05648829748674006 
-0.1135844277426343 
-1.364009416451669 
-0.6581631635085062 
-1.814146008184387 
0.5839161634893255 
-0.2990526735543187 
1.434400071233852 
-0.4666022341630898 
-0.485235610587386 
-0.7214590978369367 
-0.20337584154096 
-0.7594426401945964 
-0.09921102831594743 
0.2725875845711523 
-0.3646641518437729 
-0.4547928335457421 
-0.2839907046968961 
-0.02232269229146561 
-0.4706283740390076 
-0.0695283456722408 
0.8376274444008187 
6.076065054487029 
-1.3251244830491 
-2.23112566718884 
0.1992064534810025 
1.013043843621432 
-0.3091149254772709 
-1.321017697940623 
0.1875342191802202 
-0.6479028511266137 
3.844156712418054 
-0.267158834259318 
-0.2606257465197063 
-2.126594307966977 
2.969629679708143 
-2.333735122558938 
0.9785134015557155 
-1.755007814962635 
-1.014762546910199 
0.5070623017807674 
-0.352887796626443 
-0.4642393230336703 
-0.5061817529869247 
-0.2708751505212941 
-0.412449670129797 
-1.035307825939926 
1.06014477836804 
0.8956076405397986 
-0.5852603421542431 
-0.07796796818561012 
-0.05604132787380197 
-0.04109009023556858 
-0.8698003908475759 
-0.003251700552177219 
0.1200359412133388 
-2.391536775464625 
-1.262050649848469 
0.5004295857443849 
0.4733163248697227 
-0.3121901727615459 
-0.9742036162407612 
1.430178279852069 
-2.101029191039142 
-1.063587914787493 
-0.6431858500101315 
0.2629751206634537 
-0.4880697928144924 
-0.7553362142702428 
-0.2250524250377962 
-0.1463734529287504 
0.3660247032859782 
2.373327174406357 
0.2776867312768876 
-0.5743739482496456 
-2.024453650413528 
2.470802686015929 
-1.981081989793213 
-1.2969661641814 
0.0662898933230454 
3.64267557089432 
0.3636730998238849 
-0.4600048304276151 
-0.4860265533752459 
-0.8399392734906921 
-0.008815315870413579 
2.253075602102815 
-0.7567408733850377 
-1.71012285906874 
-2.640833022348859 
-0.07719964411820775 
0.8015899706943389 
-0.4100328728020596 
7.907987476014318 
1.024414279321756 
-1.073001673523003 
-1.052668258275518 
-1.546092871528129 
-2.24742515651083 
0.7931607769325262 
0.7611260515214346 
1.19362815206139 
-0.5800764079440432 
0.713473944857821 
0.811109354100403 
-2.524187778769892 
-0.2279354781578705 
0.2160124758310495 
-0.7235335453987803 
0.03175048686467147 
-0.1491173859195693 
-0.105652718443092 
-0.06191631342904032 
-6.972230948204341e-05 
-0.3411423292717625 
1.862792134601962 
-0.2287972631905288 
-0.8281789541918331 
0.3049418951818423 
-1.055139749566842 
3.632471634306218 
0.9971710282591127 
-0.7967937181176742 
-0.5224836754599264 
-0.07323985701918112 
-1.581114047671969 
0.6327970827325416 
-0.5621433044527949 
-1.659152201234122 
0.5932820049052997 
0.05771058678092967 
-0.3485695117945835 
-1.69790293446298 
-0.8583223159511262 
-0.8602443639208139 
-0.4840836496864808 
-1.276674607926722 
-0.982113265800066 
-1.333465665098441 
-0.6132429211645729 
-0.5113695341368169 
0.1298911971291777 
-0.4211253856214389 
0.8900581577534855 
-0.4345636596004498 
-1.914891682894502 
1.283776011533333 
-0.01023791955236852 
-0.7482752692157378 
0.5124643942862018 
0.2718213371120849 
1.533136909736381 
-0.05358150008050953 
0.7098196843103322 
0.1728279703926039 
-0.1044123508235848 
-0.08022865167581919 
0.9002161574190242 
0.6470677148052256 
-0.7458174373713636 
0.4396523412037834 
-0.3884687779715362 
-0.0540490606903771 
-2.658037200916081 
0.1558002706965732 
-0.9357832693508861 
0.464853792006381 
-2.884148610929019 
-0.8545276494236258 
1.850744443792631 
0.4216147381317685 
-0.4611436025643373 
0.5960343294308571 
-0.2923768574839972 
0.008225893689781969 
1.389237525481034 
-0.1248545821434051 
-1.899027960297351 
-1.130605576289109 
0.4846233305833771 
1.721348896278605 
0.9559002369951793 
0.6198165104052782 
-0.7259483089983247 
-0.02378014428751909 
0.8278870891101084 
0.1933481369240541 
-3.83173896163428 
-1.355378816087622 
-3.383309481795813 
-0.5270931741277824 
-0.8859228178096954 
-1.41813622207281 
-0.9476104268060581 
-0.5081917591000431 
-0.5506297750553097 
-1.763821475438414 
-0.8647518586782957 
-1.59702441300844 
-0.04302026942459954 
1.117661538428735 
-0.7015473077415503 
-1.893532940338978 
-0.4597537477328746 
-0.8738300972687534 
0 
-2.41192021200456 
-0.4362053399882116 
-0.05482059219621234 
-0.2453973220870902 
-1.486696477519213 
-2.326491500456842 
3.032834162226473 
-0.6562365297849093 
0.7103996919040841 
-1.303266006133297 
0.9024125971417878 
0.7000036707467349 
0.5620330340184161 
1.349758768245688 
-0.2488709155147516 
-0.1564708383389625 
-0.9189912923553993 
-0.7184866189429256 
1.15675488676903 
0.08437360915185696 
0.6868794286581423 
1.072951614442592 
-0.6325424334110327 
-0.5274280868748714 
-0.3216244547733964 
0.03547974567645513 
2.251891341334924 
-0.2673203748650991 
-0.2273900291210709 
0.4360542492610657 
1.309859148043985 
1.215309254605451 
2.414284972625251 
0.8781189619508499 
-1.352201390169053 
0.8235814244490427 
-0.3367787068136025 
-0.8643100968047382 
0.4021552252834804 
-0.4279657373285635 
-1.097239824195085 
-0.1067564725188493 
0.1952405406545183 
-0.407270883766999 
-0.830066474787009 
0.4647782125527112 
0.6842916940880118 
-0.5980834212090345 
-0.6701495738269337 
-7.222866270273125 
-1.327087876532454 
-0.4841419881362264 
0.4521670180128431 
-0.3310371415407925 
-1.151659944069219 
2.140077334994992 
3.835229600028439 
0.1376305395133344 
0.8943525490837515 
-0.6223607842836301 
-0.03488542681490431 
-1.86132721870907 
2.304593904023992 
0.005151920299802036 
-0.6034642322335236 
-0.7779642037717032 
4.46402381834212 
-0.2761927921751448 
1.288557782893294 
0.06509590915119882 
-0.2109827852741032 
1.752646240585271 
-0.9007119719697398 
-0.5751718507188966 
-0.8654759950121304 
0.3209167452438381 
-0.1165125632035012 
2.454274943067293 
-0.8196504825805604 
-0.6777607866280527 
0.1680129950585089 
-0.04026511090853839 
-0.03908925816824188 
-0.9740898748077413 
-1.540027078052673 
-0.1079886401224716 
3.983596338279247 
1.55142758719732 
0.5922692676102039 
-0.2485988350308188 
1.248994898001488 
-0.8139963149890441 
-0.4026435375108912 
-0.6059275984160597 
-0.2918451480551362 
3.285337917563879 
-0.3391244668138081 
-0.4123413207503672 
-0.1609142838616328 
-1.846771880566306 
1.985160570580685 
-0.272357826159203 
-0.4854609983853448 
-0.9738093772902895 
-0.2586978558366054 
-1.271251479684397 
-0.3705803446187377 
-0.3551948651553062 
-0.3217482024186769 
-0.0146026531111315 
-1.223243080195867 
0.1966945637198056 
0.2156830107107396 
0.6117313075158323 
-0.03426795708560909 
-0.4526014222372376 
3.076047693593906 
-0.1902412946537316 
0.1256685622035931 
-1.180360391363148 
1.430681733738824 
1.70400593504587 
-0.07542038761227704 
-0.9816178124703002 
-0.5973799995143532 
-0.3284363070895832 
-1.037316749402908 
-0.429406639725512 
-0.7939240417941933 
-1.660844150832153 
0.6510642994376338 
0.2703710672420995 
1.498054481865401 
-1.281030226359182 
0.8663657824476334 
-1.512760233999409 
0.00619950134147764 
-1.033096036341761 
-0.03935183422195242 
1.374668072635174 
-0.8056157720289723 
0.5429736738427475 
-0.2020031027492897 
0.6766890044911406 
-1.938327887671715 
2.323212604495627 
0.20428118608934 
0.6457598081959394 
-1.071614958280133 
-1.285906907301705 
-0.7757006118034404 
-1.083287630575428 
-1.606160734117487 
-1.681184337476719 
-1.249972468415342 
-1.586301006654883 
0.3468870212674538 
-1.268644064348192 
1.633664673893503 
1.24451851748752 
-1.823971714543668 
0.4974046605333458 
0.3720881284336149 
-0.304943924194024 
-1.908768793789997 
-0.08671103961763919 
0.1724772626956635 
-1.02854903112524 
-0.3664657825101913 
2.382143704954774 
-1.755425355309422 
-0.5099089377804953 
-0.9958013383001553 
-0.01960046324870371 
-0.5290804832486123 
4.504066027507028 
-1.084229349066539 
0.4922231276577597 
-0.5383083777617339 
-2.071678893623622 
0.05163476754950025 
-0.2511807353626573 
-0.07609399572689492 
1.297927475786479 
-1.18026385965361 
0.6394830520144668 
-0.212425510081074 
0.1780665744824466 
-0.8942830432824619 
-1.297398658054803 
-0.681606070099642 
-0.09426223133330452 
-0.1828748578051092 
0.5687579026644641 
-0.6006419998474548 
0.34979512422992 
0.2864553396827854 
-0.1856713943504626 
-0.6635589966980957 
-0.1839814145140013 
-0.9087189230154501 
-0.2981734446418041 
-0.8702625335314718 
-0.9364040787072582 
-1.360362213910148 
-0.2460863340742426 
1.189654029633887 
2.104168768488039 
0.4045612348356137 
0.2882387807916118 
-0.1536159888811457 
-0.4499952568474599 
1.229404301768785 
0.3798603747519241 
-0.6396413099500864 
-1.361732546514597 
-1.031551428859048 
-0.1335233604100464 
2.522121055483951 
1.478356552363842 
-0.1694872393069986 
-0.2899213535825323 
-0.09881284992697503 
1.645360341419839 
0.7073047272049634 
0.6672499119597967 
-0.3992752189264757 
-0.4910116494470965 
-1.05926510347683 
-0.3802064180990696 
-0.4088391536505545 
0.7542778465048956 
-0.9580278017377112 
-0.2454647125059273 
0.5663428796711113 
-0.4480081530540956 
-0.3740257868886107 
-2.259404161527002 
-0.2351808537386522 
-0.03101780056155938 
0.2809981814743853 
-0.2660169640964938 
-0.05585624539822453 
1.345841612011261 
0.6313806576951306 
-0.4574321316556784 
-0.5272022895210109 
0.9099335818050363 
0.4947978804291442 
-2.131808229662018 
0.2846358593898217 
1.460270155094635 
1.381633180814101 
2.728362594422905 
0.1756168200724655 
1.136480907958588 
-1.834845732029375 
-0.9754255091839502 
-0.1265106808168486 
-0.3844633381723608 
-2.562923619999999 
0.3398650173926857 
-1.354927449418471 
-0.7706764159266256 
0.9627208435310105 
-0.1186159426517475 
-1.095768514654209 
-1.335878901314099 
0.3889275577693357 
-0.7682075752380002 
-0.9089245102113199 
-0.0607830335700254 
1.159973324416173 
-0.5068762667202131 
-0.644841052075986 
3.376258678064389 
-0.3374635266874019 
-0.8406111273647722 
0.5327344555688993 
2.662028246880066 
1.263974777574107 
1.311441079161852 
-0.3369121090267493 
1.452342970162612 
0.2382231208673709 
-1.030845976605719 
-0.6589881682282738 
0.2917138867419102 
-1.845111129186612 
2.218263666363864 
0.3303133497168494 
-1.374155888528661 
-0.3519695100865876 
-0.2888455417812236 
-0.01775541912344903 
0.1946408808059468 
1.35907628051265 
-0.3395443171499993 
0.7645289346361224 
-1.345791267313628 
-0.9865040205850801 
0.96242388066496 
2.485498869130254 
0.3014186908618358 
0.4153752756631159 
0.4256688161460813 
-0.5813189427590895 
0.3433719683477872 
1.660933272729929 
0.4713979433441752 
-0.5709005967308932 
-2.427240513224867 
0.6807820495458483 
-3.061266805801071 
-0.1569831716893163 
-0.2137739238793762 
0.8123212419036624 
-0.2783232443594013 
-0.1526758458027235 
-0.8975548173537167 
-0.9183037803328562 
-0.5591193656525806 
-0.1688034726590358 
0.01341461126255339 
-0.2488814719597101 
-0.1415686662536269 
0.1150412618919013 
0.08839976830327689 
2.284104486665544 
0.2328004083604986 
-0.01274754468526242 
-0.7319067246874947 
-0.701111046400179 
-1.589154756606863 
-1.008938095304412 
-1.017574901434122 
0.270175070814372 
2.201499108187789 
0.6444056743352644 
0.02400567485843164 
0.5610366065757914 
0.01821075552333083 
-0.1546037205765596 
1.426776413005737 
-0.05718792195274752 
0.8109461695119157 
-1.326591380870906 
-1.537100508907435 
-1.222342332652072 
-1.19881721098307 
0.1374820396690855 
-3.25173077529904 
-0.5314611025458857 
0.213807154236659 
-1.007742675076497 
0.8989575936081755 
0.07243544618890077 
-0.6179186664739011 
0.7290294160916668 
-0.8823686050094484 
1.684005064925262 
-0.4597135114720057 
0.3075977949340308 
-0.5152076586409335 
0.09799038916538212 
-0.4715169066841688 
0.4669811755975664 
-0.1706895233536947 
-0.7785764912481042 
-0.1926878927985587 
-0.1987810047490964 
-0.5252478328336311 
-0.5875657390713488 
-0.3182160369086495 
-0.5422733896410553 
0.4139624953584292 
0.8900642288512994 
-0.3516787784409648 
0.1299654919642838 
0.03503211614959448 
-0.00247542225934676 
1.589038539341294 
-0.0480400953389248 
-0.1548804619654781 
-0.9832343293597576 
0.19714657801229 
3.021995617112172 
-1.327066083561106 
-0.0674955227493312 
0.9905870971450412 
0.1324593067472466 
0.638864654138777 
-2.472393673893964 
-0.6241567815037447 
0.7336688681138729 
0.08619650895585292 
-3.980378890267518 
-0.2702837163769903 
0.8748243960784933 
-0.8030487947061633 
1.242556062985953 
0.4804300092014026 
-3.161361927053576 
-0.9647922772063682 
-0.3069206230966114 
3.962273845604872 
-0.5333843865926808 
1.508033163203662 
-0.1516367980725739 
0.2549730551343095 
1.311996158831354 
-1.062452215429127 
-0.4278431589995359 
0.8669795664750262 
-1.52292201863487 
-2.529368767178109 
0.8301477933781181 
1.482932160812179 
-0.7409903034694504 
-0.7933543819887329 
0.4640444418956912 
-1.16571574160593 
0.9692759394426315 
-0.1959795497969943 
0.1892397140793171 
1.628629470507701 
-0.05184334059820115 
-0.6285792045089756 
0.5846923865439754 
-1.141097067402689 
0.2889002994067596 
-0.7920803718826822 
1.261052650304376 
0.5803797831016901 
-0.7036195996370526 
1.732552133225452 
-1.071432073766513 
0.3839987231833401 
-3.23350429541531 
-0.2741453691703852 
-0.5767042831182526 
-0.7082986299345682 
-0.00168987814065502 
1.425662235627876 
-0.2614505170843486 
0.2986371545373461 
0.2016266847334812 
0.6040203203616223 
0.3920202638941422 
-0.1285214582688982 
2.057207696250968 
0.004210845937648434 
-1.465459478442638 
2.443777909707836 
-0.6097458198501208 
0.8836510347464489 
-0.5448786181241072 
-0.4936220163687379 
-0.1028248330677061 
0.8024738227618813 
2.653286497731412 
0.1468943253644562 
0.04183418813147131 
-0.09559339058624486 
0.07100138165593108 
-0.5400760011771757 
1.175401908305616 
-2.182224301203136 
-0.6337703864235882 
-0.06807498531825343 
-1.662497180434225 
0.08184775640146189 
-0.0459925660789824 
0.1079576229840666 
0.2948758234053812 
-0.6049215504842713 
0.1418159496926125 
0.419308288554714 
-1.495417671556865 
1.45623528571516 
2.581910624676674 
0.04112700108134656 
1.297853100910381 
-0.5175359642753746 
2.120902503544619 
0.5900944728439065 
-0.36222895969598 
-0.2322860724026752 
-5.968566999616747 
-0.2749810585618923 
-2.306941948866056 
-0.2741387033683353 
0.7218788679325994 
0.158231607896261 
1.377794554182705 
-0.8983890311099697 
0.727202302204296 
-0.6016378759996651 
2.042405281313427 
1.243905860309253 
-0.4764082077956235 
-1.73641305110113 
1.578410133418505 
0.2724671457516213 
0.358324123243795 
0.1527018321184007 
-0.8052380091175052 
-0.3605008092296128 
0.8366694097396651 
-1.314212566492714 
2.419925994903342 
1.324414063296816 
-0.3986352442720996 
-2.430481069521726 
1.419437656907856 
-1.262299847220753 
0.4456285405363832 
0.3597619775322618 
-0.730469166473142 
0.7419341099574047 
-0.09778119303973155 
0.8758170868446475 
0.3998709046754084 
1.084602442845971 
-1.870577950203499 
-0.3471514012412321 
-0.5495308703398197 
1.454214913714971 
0.2702733948731228 
-0.4956146469068792 
-0.5733355923105425 
1.450322307870064 
1.205912080124408 
-0.7130990624242716 
0.09440505667608284 
0.4489106690535817 
-0.08190368074872256 
-0.08522525232422212 
-0.4177434679270703 
-1.178430257096882 
0.6922775767234004 
-0.3126954364470875 
0.08284290215456756 
0.4861177054341772 
1.66210840843955 
-1.007861518412023 
2.744560123700778 
0.4189292579000885 
-0.2651713696106024 
-0.8241037066923865 
2.639118512148247 
-1.202780523306916 
0.9301407282954689 
-0.6936944842822473 
1.580172707269506 
-0.9454985344612252 
-1.256383210467531 
-0.2790663287067217 
-0.6057057520164933 
0.4986654484845141 
-0.2336809272189886 
0.4078027576417905 
0.421961812487133 
-3.384482624580967 
-1.143173933855712 
-0.2543998065540373 
0.2467183985577962 
0.2973888724602223 
1.044276892057251 
-0.5609379662734516 
-0.1537855899813659 
1.082138789167817 
-0.3391213705307308 
-2.696885125105795 
1.844622509245277 
0.07277138678357342 
2.209500218810594 
-0.8276991489485579 
-0.9277434972207859 
-0.05746560851471672 
-0.8703949806421218 
-0.2107224562641474 
0.2196175549157641 
1.195713982490498 
-1.732732261595282 
-1.512523905268764 
-0.3236695403666556 
2.070329380092877 
-1.279485460149081 
1.939391202371181 
0.07277538660922188 
-0.705176021703823 
-0.002519674376363628 
-1.259751144254593 
0.6212618055506557 
0.00768907444093244 
-2.108081353535903 
-2.302044698473754 
0.3007623338245073 
-0.09171291199474367 
2.457366268718125 
-1.289568519510535 
-0.7844002420402399 
0.5142979162271504 
1.560558320724569 
0.3259985380916887 
0.6379239486764009 
1.251279889007491 
0.2970579081816406 
-1.082730013088754 
0.07431714673320773 
-0.05590189892914303 
0.3798258876021465 
0.3283241416917123 
0.4019779180219276 
-0.8947696592206161 
0.5119559497932793 
-6.053171133657206e-05 
-1.647329940663431 
-0.4166717137661463 
1.708028474406068 
-1.649905967849811 
-0.661637598987591 
0.1484827245104925 
1.093504946871968 
0.6514167247427228 
-0.1794477036456759 
0.3023669501138371 
0.4360419100599163 
-1.818193283820573 
2.10935667178541 
-0.8420742216548504 
0.2735397947635598 
0.5350024835898041 
-0.4860343815467228 
-1.124139016265183 
0.9241717397680574 
0.3442926770502269 
1.185502462530869 
0.1963292896215598 
-0.09843188802761339 
3.792557743790159 
-0.2097391351419563 
1.014065557950331 
-0.0697039530311134 
0.1007707224736887 
-0.05805380750818743 
0.01108193444946621 
0.1077812860758183 
-0.2762332087162869 
1.054023981990684 
-0.7042135507002841 
-1.164727275794357 
0.095207285778554 
-0.2520547981543445 
1.364298610331293 
2.66970114760151 
0.9847451494227838 
-0.8168333417164437 
0.6563653317524815 
-0.6415212801935578 
-1.944415197138713 
-1.684879977951806 
0.2835357457524748 
-0.9054660988708397 
-0.2861909603020798 
1.284500264093252 
0.3653059638363672 
1.41967183523019 
-0.1605609647149787 
2.007728208810708 
0.680683025471338 
-0.1322459606898934 
-0.2984855876597867 
0.8249637765176508 
0.0423525218120548 
0.02501641833600116 
-1.033848202540053 
-0.09210290576186463 
-0.911813463079212 
-0.07521642826064032 
0.03780921052167242 
2.607802283271145 
-0.6595608483532605 
-0.3290116176260717 
-0.6192130391975141 
2.075906731809791 
0.5648872620050672 
-1.074717059060242 
0.7868461364056138 
0.2865652819561426 
1.114528865525421 
-1.410846479939641 
-0.7477364298072565 
-0.8274998342396919 
-0.7329927556275982 
-0.6539856659617251 
0.3638293779393418 
-0.8948782894385429 
0.4067404329450825 
-1.209793328497333 
-0.7523090322389426 
0.06729303662030608 
0.0825514988133543 
-3.758677008687366 
0.3846885469662006 
-0.5800479458843225 
-0.1317472216247516 
-0.4186333868340189 
1.780167939713497 
0.80800186819604 
-0.5874101583631648 
-0.06804231325967826 
-0.7273316205417029 
0.07517797315780007 
2.459751158702815 
-1.474867282296868 
0.2401835105533791 
-0.2053487656783471 
-1.18972050946755 
-1.217333967576179 
-0.913729972534106 
-1.072157609639038 
0.05391953264355465 
-0.03055967055075789 
0.92868173164776 
1.827574792809329 
-0.1087624480230978 
-0.936682910901426 
-1.358643039312387 
-0.7558309435939328 
-0.2999365148797518 
-1.248157118992671 
-0.4694897761376042 
2.267608186527793 
0.07679760880373922 
2.975870185802974 
3.421829245412292 
-0.1194765670438503 
-0.03678659277344711 
-1.00702614865696 
-0.7245597191038763 
-0.1172486332298836 
-0.1548995291382003 
0.5046022956555756 
0.329085366580965 
0.2748025256454287 
-0.1048138623828041 
-0.8944451698710841 
-0.2431103506250945 
-0.7910523177686898 
3.298476751679365 
-1.159124771290288 
-0.7952736147622423 
0.9526575581732663 
-2.945081010424049 
-0.2621095017735154 
-0.08592659911217243 
0.236218285555933 
-0.7812807702049254 
1.309402635121733 
-0.8493145616080628 
0.7215362210830464 
0.9674905662788894 
-0.4386977640636742 
0.2708845414621869 
2.963621493942835 
-1.966539314270696 
-6.992081330622146 
2.118225462223696 
1.013733392754913 
-0.6257111634545222 
1.616642576666755 
0.3414142194872706 
0.9975963613738136 
-0.5044526260681446 
-1.091552631525871 
-0.2015067414674942 
-0.8652674681243646 
-1.048974885752405 
-0.4030470677498843 
3.089550639833483 
0.1826323581210893 
0.8623234840908158 
0.7839320671061211 
-1.336009067664495 
-1.422228756850523 
0.02711660307182092 
-0.3195187854331377 
-0.4039687162896479 
0.9357891823309644 
-0.05820585920113051 
-0.3497146194344259 
-0.9801815364644358 
-0.385972809902903 
-0.2848951480859326 
2.28608412194738 
-0.02184428336285624 
-0.636988900214927 
-0.6719956272043572 
-2.4807469007331 
-0.9023350799675385 
2.098823695649331 
-0.9380549124464622 
-0.1708829058653887 
1.060672949497451 
-0.5373241980576174 
1.469510562848571 
1.54506044046213 
-1.882732903154941 
-0.6122931794196731 
-0.1763202951537022 
0.7012385661312055 
1.060427640482527 
0.2551145894523812 
1.627479459746838 
-0.03172152261300119 
3.676701651632467 
0.1597270741950418 
-0.2363681285556046 
2.501195495836597 
0.7130144821465163 
1.568301397716834 
-0.0695526881441362 
3.336086406784752 
-0.2041749723543808 
0.2683366869109752 
0.7207493944267158 
-1.484583214866593 
-2.506555850020038 
-0.8159282999965367 
-1.92904708162373 
-0.3383078274199918 
-0.06804709314184816 
0.04252116218448636 
-3.811588457609898 
-0.4318019357591402 
-0.3982383181694883 
0.7067639973569961 
-0.4094235028579496 
-0.3115810070903658 
-0.2935876666801558 
-0.1354865749265298 
0.2301255982198009 
0.7525290956786981 
0.2839641530486531 
0.9595326053370369 
-0.3820145094545802 
0.7320009014649174 
1.482433947893024 
-0.6272909003089862 
0.330382811150691 
0.07599392607419773 
1.232654915246334 
0.2624553986992822 
-0.04791682696331006 
1.713471784177472 
-0.3375959846236012 
1.849279348211381 
0.3610458087518651 
0.9160308623007586 
-1.986980315323605 
-0.5270053735180562 
0.3128926344391175 
-0.7123748032066013 
-1.294585003940775 
-1.088651530931991 
-0.08743088106568574 
-0.01505884983134326 
-0.2847249064021204 
0.01455586977030237 
-0.04577541480740645 
0.7770326693338685 
-1.006939764880415 
0.1629917840661788 
-1.261900133393765 
-0.959909191838842 
2.752939655001993 
-1.089265148511216 
0.6877636105963524 
-3.149344431767307 
0.8447021054605824 
-1.260683307034188 
-0.6682841033938534 
2.038889502286859 
0.1421886950408077 
1.946052281442392 
-1.349065230428133 
-0.1316375129482398 
-0.2765281607203345 
1.453325847018571 
-0.08056165768827825 
-1.121549056970036 
-0.5417971427424373 
-0.7872854216432358 
-2.621381561584089 
0.6818023510367395 
-1.171785805229612 
0.2717915153505798 
-0.2119527533373708 
-0.1008307099980662 
0.8403356494307981 
-0.5299862412845607 
-0.7400811905295427 
-0.04802370074716122 
1.008870709050864 
0.2244773070644782 
-0.901342422810219 
1.108615029251483 
-0.5859530217754993 
-0.3768860892040468 
-1.998360077601318 
0.7705303545748703 
0.1259625530528322 
-0.9201194976537239 
-1.15201052639079 
0.8026086265536265 
3.263741010435787 
-0.1525060159088712 
0.8107129921187202 
-0.1761987652167967 
-1.500214907917192 
-1.603387453391151 
2.496789317609147 
-0.8106612000766468 
1.116798860571671 
1.388606349317301 
-2.843249269861627 
-0.6102616322206129 
0.4017178581706867 
4.349662514328617 
-1.457819566449781 
-0.985122421776314 
0.6673672014655517 
0.9703881764951177 
-1.514525602884515 
-0.03039440085357879 
-0.5866957656864396 
0.2182407198507744 
1.228954711832707 
-0.897895689048386 
1.07338525397352 
2.806155440437092 
0.7466561915061958 
0.4095012890022825 
0.3995866830391268 
0.9693835261522341 
1.240906174400165 
1.36780682606031 
-0.8555815028201422 
0.07343894507798579 
-1.292053310387836 
-0.9708164852939871 
0.1062933334282418 
-0.7721049785347645 
1.083151328345141 
0.006824275124968736 
-0.2981416056230479 
-0.3990215583526822 
-0.9111315185844557 
0.08525646651895739 
-0.63211442770904 
-2.012579490472842 
0.8991418748883797 
0.5119945670262238 
-0.01751318878108455 
-2.185347918102485 
-0.4384378809672246 
-0.1760040639389434 
-0.2563520170407171 
0.9700349178235254 
-1.343514970833976 
2.544579600750008 
-0.2238643337750172 
0.5796251852058535 
0.2941388308668941 
0.2754449707626945 
-0.6266578331469014 
3.952227753355398 
-0.5563639550593047 
-4.474622129910183 
0.5606460106394971 
-0.6425679314060023 
-0.2926173653132483 
-0.651815806896292 
-0.601766013525715 
0.07446272112411471 
-0.2170676955637527 
1.250466433762382 
2.864301048391986 
-0.3674683593952113 
-1.61484248229679 
-0.9606821452678433 
3.093058299486056 
-0.3837780339671601 
-1.258529323835556 
-0.3882538090987093 
-0.7791113773589522 
-0.9215382118815953 
2.05574229449906 
-0.5659825225490785 
-2.079319405734569 
-0.668903733645338 
-1.603791840524449 
-2.190491807887659 
-0.6145214802230449 
-0.1191264756806647 
2.656906158850473 
2.269004114787724 
-0.3974280145347659 
0.5820251781311592 
0.2762906977261219 
-0.4780963373846514 
0.8818337865279076 
-0.0605669840611566 
1.098422869998813 
0.06664880839196377 
-0.4945759118289075 
0.8672553744120979 
-1.216394569739996 
-0.8174083871227545 
1.711321762339024 
2.836637197598626 
-0.2641888164463761 
-0.08776038691852181 
-2.491583221818334 
-0.5789563691352395 
1.375344837651542 
3.643375123753098 
-0.9627505270506888 
0.1082354254127663 
-2.199187269840361 
-0.03783689205815326 
0.4716686631117853 
-0.8754169823260703 
2.117360107108343 
0.9135658216720264 
0.6702392309698313 
-0.2117311897404725 
0.4632070048954705 
-0.2264204410624356 
-0.5723115653471798 
2.285448087452078 
0.265932285365007 
0.5048603822398516 
1.911946490018064 
0.1304036921396272 
-0.425229684186632 
0.04057308317292612 
-1.16058918954081 
-1.00347876272083 
-0.1106431623351679 
0.5160676450095679 
0.2491876176472425 
0.02781901753648741 
0.2550067243159653 
-1.080018818497875 
0.8055790561794745 
-0.958860206863412 
-0.4020753913557726 
-0.4947811039109202 
-0.925967754557132 
0.439471432491628 
-0.263210137379106 
0.9504916293766065 
-0.2710062553032787 
-1.339912488599978 
0.5460744331469787 
0.2597953235800318 
1.903766191798594 
-0.3366553955778035 
-0.21214175648338 
1.144582998264955 
1.165022597836573 
-0.07584247134691627 
-0.1106810573481787 
-1.015853895792488 
1.547692932493117 
-0.4084324070649863 
0.5694691565101797 
2.728950513952003 
1.82473433068416 
1.979803525744691 
-0.9574552266794258 
-0.8162686368367135 
-2.16900599905849 
0.9825141034426592 
0.07871629250291072 
-0.9541096020587938 
0.9495533290362733 
-0.4866550220737671 
3.884489743334463 
3.705288542610583 
-0.439031973263967 
1.112749265231135 
0.2477233384214034 
-0.6665250849400796 
1.876918007247289 
-1.012374813521944 
0.006636718169675186 
0.5397497217575387 
0.6686532467428429 
-0.448702681467762 
1.765104001568921 
-0.2216528110579437 
-0.7436720429428951 
1.837962838541537 
0.9337621005082839 
0.5793176021939492 
-2.230537441285315 
0.5520235546193932 
0.6451917850799249 
-0.6016418203462087 
0.1481386929905109 
-0.5649315351996502 
-1.014366213375333 
-1.237328287002836 
0.1351234209830148 
-0.446922231394065 
0.8073899727805548 
0.7274343427503589 
-0.04424286370623413 
-1.021776425630476 
1.70258990497179 
2.084190970028019 
0.7594871427687597 
0.06383158324877881 
2.559518063173707 
1.618855528391931 
0.5324599671006555 
0.6553736462208875 
0.3012899719758499 
0.003691724799638296 
-0.2768095731516696 
-0.8272884222674688 
-0.3021504548050727 
-0.8890678181695816 
2.381779569081048 
0.01260645852650342 
-0.7653749264357691 
2.764064768155249 
-2.123234273531851 
-0.9117680396530272 
-2.684354022573247 
1.560052752566493 
0.3412293758427151 
-1.464695731801047 
1.254645959712776 
0.7331465631541711 
0.0676799816858841 
0.6795785367034008 
-0.6639987396635648 
-0.03153146648451475 
2.723426046649925 
-0.8051222329260995 
1.213733202291585 
-1.833162304145885 
-0.7812576010106889 
1.466893540667971 
-1.495037591825075 
-0.8558278825934758 
0.3212151416419758 
0.1239280696359309 
-0.6273134059967582 
0.1059187072057581 
-0.4553467623791085 
-0.7657037469792547 
2.533318314459728 
-0.6632290783961737 
-0.7611573835484479 
-0.1625986380063947 
-0.4020008338687201 
-0.7238414859494128 
-0.6051639909915034 
0.03600920755697176 
-0.7400830084359746 
0.687066605941542 
-0.5359207542808319 
1.159599336762533 
-0.9379241313825546 
3.000904270940715 
1.827066918942602 
0.3080812286284745 
-2.451392012411263 
0.09582451759062109 
-0.3229053228334923 
-1.458593405483478 
0.6028940816095025 
-0.4616935490224975 
-0.476760165947483 
0.453759089199367 
0.760852365912649 
-1.462220441890203 
-0.8944029903409328 
1.610129942534887 
1.007946706955195 
-1.767772683407512 
-0.7247994201713673 
-0.04547800704246101 
-0.2949902795720474 
-0.2619322877157093 
-0.3208384749902921 
-0.01848874944658336 
-0.3112950119004461 
-0.2601666284201901 
0.461699574971699 
0.5425642410201319 
-0.8989234419412701 
-1.895739318192307 
1.279435368169778 
-0.1313846562032955 
-0.855300860834456 
1.648178766716642 
0.1637252258190188 
0.2476595070166123 
-0.6074574297141891 
3.604855850350279 
-0.2200453985052501 
-1.182334687384115 
0.9811698012657138 
-2.352853195578038 
-0.6193479373562004 
1.138570486247261 
-0.7029863706926137 
-0.2765736438342426 
0.9280522238401573 
-0.05638791712236511 
1.301042606982605e-18 
1.137121699055301 
-1.113584199137493 
-0.8205594518285819 
-0.4994951777888048 
3.2412387345051 
-1.210396559970164 
-1.501724331692217 
0.8668784091894149 
-0.08854574131098603 
-0.3340262779509294 
0.7231777721856176 
0.225823039331876 
-0.3199602973693048 
-3.117725301871724 
-0.2872513735273094 
0.6438747101814343 
0.3265590790895286 
0.1655997600510847 
1.634996673747333 
0.682281806040099 
-0.7585367823655439 
-0.1843745585405999 
1.608225727104592 
3.688471707283315 
0.3204428431300396 
-1.515919036081711 
0.4159989876995812 
0.09645144904065825 
-1.229057249479529 
-0.2930540752351451 
-3.580865047187018 
0.520000337634843 
0.1375729390541864 
-0.8002619978750058 
-0.1404921956072524 
1.695158720948104 
0.09926465545232313 
0.1811402912537415 
-0.8415170037291418 
-0.2832030833617554 
-0.6319792460944225 
0.3781686213793432 
-1.426444924585628 
-0.4382567467041817 
0.492415943051804 
-0.3781532817304176 
0.7607142913248157 
2.335252333888421 
5.094577161282656 
2.850883608776118 
-0.3953178059010001 
0.2479093250686633 
1.220573275660889 
-1.178717392559374 
2.795001858848562 
-0.582840228799278 
-0.2379621844618396 
1.355366426392846 
-2.293686512851582 
-0.11018785197352 
0.557882683494597 
2.444820959096958 
2.917562843097462 
-0.4601468118147561 
-0.8234302449282432 
0.3698357926677051 
-2.062607378046654 
-0.2181354788480379 
-0.8818917322876998 
2.867333393088054 
-0.9874970818597035 
0.2298583684228669 
-1.279951355894629 
0.3042834196247348 
0.7647255423421566 
-0.1425369379493852 
-0.6755822345812473 
2.424549153228229 
-1.875546811458575 
0.6172517163791812 
1.431482064574409 
-0.6891175200257957 
-0.3691469031980004 
-1.138294183315174 
0.9008885390757234 
-0.9225096796822865 
0.9614542344534608 
0.4962125172241317 
-1.195620149778368 
-0.9480069665341826 
0.0868857902856834 
-1.338554607655232 
-0.2956174783030673 
-0.4931680319531782 
1.625726853028675 
0.2911179763800236 
0.06785990717614374 
1.752435870380235 
1.495427546661456 
-0.07371909369153916 
1.209564265699903 
-1.490601520928333 
0.5068721424394383 
1.173455248986871 
2.452607429308348 
-0.009487172490873004 
0.2379220381282537 
2.511753507390122 
0.5983184032335622 
1.557073416217939 
3.548557401490564 
0.06643381086359904 
1.050293685715914 
-0.2545236837427666 
-0.6289880034924368 
-0.45290579916172 
-0.06599438197862581 
0.0209808480258335 
0.7027486793999829 
0.6432665615764244 
0.4403891859156073 
-0.1266062164798577 
-0.7493427042798801 
1.505232091925028 
-0.1527283040770031 
-0.8020438169981592 
-1.374316218579652 
-0.8432166041819655 
-0.7257999495810571 
0.1501211026104962 
-1.937768882822385 
1.045667859223224 
0.08761692908475405 
0.7253027916493602 
-0.7704995782498461 
-0.4209656501889003 
0.07993924953009206 
-1.028443349245681 
0.3476026013570855 
-0.06347350679523221 
-0.1536217249839786 
-0.2219489265834435 
-0.1245189909314263 
1.542177803549369 
0.3664139099197503 
-0.2216938634058635 
0.1546571649268747 
-0.5443138347946331 
-0.272483951998058 
1.985588571512389 
0.1629079543463393 
-0.2213054628518598 
-0.4245055261478303 
1.579588773579005 
0.0002285848409211189 
-0.4261291444511398 
-0.1817456886327267 
-0.2159646643191833 
-1.779876475077554 
-0.6318618181189642 
1.09532321416527 
-0.5311496005717654 
0.2662166608988837 
-1.745975083447427 
2.389094167868636 
-0.6066423471694813 
0.05928147112762425 
-1.347717613771671 
0.8957216504545965 
-0.9597699424873338 
-0.028579315791835 
2.460675866499126 
-0.4617683734155878 
0.09072412241293001 
0.4272704661934951 
-0.1753703966586426 
1.708191188471968 
-0.2629573159792279 
-0.6820504894900347 
4.710168752370867 
0.1418417660500789 
-0.9518247940464588 
0.3817040959093866 
1.888175811052697 
-0.1418227494204116 
-0.4639176327841725 
0.959270655393112 
-1.033548327744827 
-1.236202044549942 
0.0164556927762671 
-0.3365515915250415 
-2.037995038226033 
1.961724407444429 
0.2605977697886867 
2.096636687257993 
0.1952917568599126 
-0.3851760918283936 
0.06878477554515809 
-1.835417630686625 
0.4113329870040963 
-0.6402688043436305 
-1.382789778500845 
-1.960798239558857 
-0.7508708594978276 
-1.249626555124431 
-0.3465528548621704 
-0.4665048831514374 
-0.1980952444730358 
2.605361230439007 
-1.040860406337575 
-0.374079340776747 
2.871210669536207 
-0.2841005761516417 
-0.9899431342384859 
0.1037561253041986 
0.733516421903465 
-0.4606562665511257 
0.3884251457475973 
-0.4999172851472152 
-0.5345533314418088 
0.07116623563516353 
-0.001827457411357409 
-0.5012209605487052 
-0.1882523780272073 
-1.28289384825728 
1.204587468250861 
0.3190544772547853 
-1.513049299741163 
-2.911539927995265 
-0.02455683730424144 
-1.36652612670813 
0.2704179453053781 
-0.4236329551997888 
-0.3254567633658637 
-0.1934674864070853 
-0.2589079473976054 
2.374586753942007 
0.3515409997746586 
1.453572148370311 
0.2304360915751449 
0.37464659101008 
0.7245933615781645 
0.1233698003474413 
1.0495873675898 
0.6765084752816821 
1.024479654517444 
-0.380055522256114 
-2.184086246951679 
0.3644537429961398 
0.541833648664654 
-1.266651567005874 
0.5974166409559081 
0.7285159702424411 
-0.01514636662917729 
0.8216201905844536 
1.062382221127988 
-0.3549048518900039 
1.329802295423697 
0.2127203509163617 
2.707985503344633 
-0.1043403533736553 
2.41400415709073 
-0.08505490013750747 
-0.4234633012662105 
0.5000138132133523 
-0.3346201924547275 
-2.127088950281535 
-0.006807439908608133 
-0.6367734903935973 
-0.1029395599241384 
1.009570075578281 
-0.3782330299604903 
-0.6243417255179021 
0.3563824041650979 
-0.1983718909075787 
-0.03340442671399924 
0.6201762907596458 
-1.11830495595149 
0.7279106432957088 
-1.188698058711475 
-0.6000795986468214 
-0.07032144080013626 
-1.184933369309236 
0.4333300664807738 
0.8176511967337958 
-0.9972674905083357 
-1.198162921655258 
-0.3345317917997712 
1.183777620525765 
-0.09288676289455493 
-0.2419495746330024 
-1.044734706103134 
1.196032596938547 
1.755985883964327 
-0.1659006461065685 
-1.341740150844274 
0.08204545400572154 
-0.8622739794675223 
-0.7441049446594319 
-1.587400251562337 
-1.697210787770858 
-1.439434926706947 
-2.207297324862892 
0.03874887258695021 
-0.2277815383649444 
-0.1166083919227964 
1.322680096994535 
-1.057383049830473 
-0.3590364497737613 
0.9393429602965467 
0.6559327336034351 
0.3515496013982082 
-1.824430702431471 
-0.2933766608800911 
-1.027791302538865 
-3.979890620411716 
0.2612102631089415 
-0.1554806958636475 
0.9334408421659725 
1.376233906173453 
0.07066754426631774 
0.9226276931513951 
0.7024211367742453 
1.398667095129747 
0.4337622276417494 
0.8496503120556376 
0.5957565065872593 
-0.27834756065446 
-2.177512180126685 
0.05927871613740279 
0.2866215490303924 
2.391673783105055 
1.263238309412789 
-0.1474806504763916 
1.467168992717649 
0.6329234814889458 
1.414081060033022 
2.048969092976525 
-0.541277266410634 
1.191913033038136 
-0.1268381172691742 
-0.02896078490394085 
-1.42506412101555 
-1.246908775420714 
0.6689109846824515 
0.07961687718783388 
-0.649800626234637 
-0.1903736866920873 
-0.03653465754573548 
0.5493092821414695 
0.1240672276728871 
-0.6569050174249179 
-0.7974100262198763 
-0.04117879378589927 
-0.208526336787788 
-0.05452983423350991 
-0.5528618920126479 
-0.1053401228522045 
1.729468943036947 
-1.314579935886331 
-0.4964816763338754 
0.8900686605658193 
-0.2281363114026822 
0.2172731410546112 
2.17732491296864 
1.231668791965357 
-1.214083308408431 
-0.2286159855715899 
-0.5457867723856703 
5.163541899091878 
0.7856011891496258 
-0.6276954822668449 
-0.9370299847631666 
-1.219806196434249 
-0.09519111223785735 
-0.982439373279117 
-1.482031803346262 
-1.06240719989165 
-0.1819553313693067 
-1.019403570367809 
-0.6427354584628703 
1.550958298739691 
-1.092976597598281 
-1.114004969975861 
-0.4604326699745741 
3.435742511743622 
2.031139019119263 
1.702610549477072 
-1.16914957308061 
-0.6974241743275346 
-0.2498053403216166 
1.207516799099962 
0.1563253075167343 
1.74740921516187 
2.751072775680982 
1.515407051504263 
0.4970143462389576 
-0.399252712031644 
0.2814657169895429 
-1.425119396745652 
0.4272875121338005 
0.7074058977711332 
0.7062893305387691 
-0.195266052421723 
-1.049529316142849 
-0.2090922549437202 
0.8357838970002013 
-1.263534366895629 
0.2459771295189252 
0.9659268176231047 
-0.2135985906994577 
-2.60145620928021 
-0.1048811105198412 
-0.7033062825759671 
0.5689112221113248 
-0.232798345959755 
0.2956608746498142 
-0.3281478160296091 
-0.4331714647894154 
-1.240666118306197 
-0.2339233474918439 
-0.7301079533906679 
0.3008196920008412 
0.926137581713018 
1.13658903717445 
0.9497948161168154 
-0.01394278911361617 
1.775218702075311 
1.932279332871376 
-0.4768761226204013 
0.7046819675712142 
-0.4859021869150509 
0.3126699389191079 
3.915200730220267 
2.24921837427407 
0.3526106920557577 
-0.5955820595301689 
0.6319759813765005 
-0.7231317628313516 
0.2346087602994947 
2.100409232339337 
-0.4486015041329923 
-0.8420189555760261 
-0.8294339177236556 
0.01415067961249213 
0.5239629633453164 
0.8076768743784447 
-0.8482586509325685 
-1.443440860923314 
-0.05034251751711959 
-0.6543696263579035 
-0.186799168049629 
0.8782042824177838 
-1.778216896101176 
1.3652336332282 
0.9087296545187337 
-1.148469663398375 
-0.03396891254875133 
-0.3144447569758691 
-0.2224931214023337 
1.247163087824436 
0.3404949547238545 
-1.52461587838085 
0.4437323630529969 
3.644087903888193 
0.07777572770839664 
-0.2702509345311052 
0.6226810366903468 
1.02194083616706 
-0.9848365269356474 
0.1019170245426471 
-1.306131978949701 
1.227147107084468 
0.386595422989903 
1.597727589436952 
-0.4191144821792849 
0.1298013944372751 
0.8341483413635433 
0.7484592238771466 
0.7707866972773145 
0.5118618394339424 
0.1189462100642182 
1.141177004540712 
-0.8074827333808999 
-0.4885328947785958 
-0.3021817524558978 
0.6698594761854946 
-0.9763010082410666 
-0.3433946413160783 
-0.3806665120008245 
-0.1491059500885796 
-1.80409043114708 
3.931366819552598 
0.7296078649749811 
-0.06101443413684828 
0.04455877089860633 
1.196014008845222 
0.4061315996830942 
-0.8559330335402088 
-0.6065973527521389 
0.606062876221756 
-1.898701440368857 
0.6723015422211005 
-1.141309972766984 
0.6106830680790345 
1.063010970820783 
-0.4396145011398128 
1.00296002661293 
-0.3538690776247529 
1.140034751806874 
-0.843074141404979 
-0.4943479165316549 
0.2624692980877485 
0.9048083413051248 
0.09309450787599029 
0.1936512241065921 
0.7321284753894126 
-0.09468158205524652 
0.2469739589477225 
-0.3470635076642094 
0.3609060081063848 
-1.256303499530739 
-0.1469432189918806 
-1.428122558901785 
2.602252532465883 
0.001591895649632979 
1.387778780781446e-17 
0.3124820225647196 
-0.3471857488115451 
-0.7908553368083262 
-3.211323550663089 
-0.2915357628365254 
1.857887569318192 
-0.02322144870868906 
-0.4515362773408518 
-0.3026919818568322 
-0.01426005939312273 
0.0007086666387999789 
-0.2088274834995409 
-0.1224867337077246 
-0.2508492267066238 
1.613050047141769 
-0.5046583174015342 
0 
0 
-0.303318832685558 
0.8867847365212438 
-0.6601131929238283 
-2.010571186548279 
-0.2083626539435069 
-0.203948625859106 
1.390902687007579 
-0.8619524861678569 
0.8703082365588652 
-1.110002176103241 
0.779349544029038 
-0.3929805045617063 
-0.4462288666568275 
0.6247633240329392 
-3.266575789520167 
-0.4931091995534345 
-1.770193752442705 
1.03516570141512 
-1.197448376497112 
-0.03518373278425528 
-0.8476168692344437 
0.4114118400893927 
1.464088081657509 
2.074904588192809 
0.1486533319449432 
2.143313259605098 
-0.4575966500463653 
-0.5814713814952112 
-0.7879088438004934 
0.8696690924620861 
-0.5239138313386165 
0.06497631179635539 
2.645429494091446 
1.340828090608197 
-0.3060692727193243 
0.4192755454983589 
0.3118112804617023 
-0.07497039087835665 
-0.5249258435462559 
-2.320508222155695 
-1.647997385186115 
1.017528328118537 
2.786388221357545 
1.052763966842239 
0.7653616252933996 
-1.060967631546769 
0.3890565433857219 
0.5784288555232722 
-0.640751116043292 
-0.5413828034961149 
1.392281239085293 
-1.20809561368334 
2.605201405713659 
-0.9039863873928845 
0.7704284630915078 
1.327069129096807 
4.466878102459869 
-0.6563331419004336 
-0.1175034676790357 
0.01212899880738813 
1.756443501282989 
-0.01270745563777534 
-0.3536300093994739 
-0.0004262136770325146 
-0.07238274534589045 
2.237378174084881 
-0.8255045855791974 
0.2655677968354752 
-1.419615151681209 
1.960543216687079 
-0.5693615602060855 
-0.6656095283866524 
-0.4354130331309069 
-0.1020738277443601 
0.04618539897233754 
-0.4649785144971539 
0.1915355488117533 
-0.4827552761326805 
-0.1307175967351095 
1.679722311615482 
0.3646815772567757 
1.082306907881142 
-0.3028683263119328 
1.142394832831738 
-1.558989783097442 
0.1928789417476406 
-0.1081324505568669 
0.6994618311115449 
-0.8625646853691644 
0.252249145722808 
1.584506190800443 
-0.7509024283269661 
-0.546125795302897 
0.3069124784843644 
1.623567603979642 
2.003713054326571 
3.169864527348252 
0.1115126010107181 
0 
-2.012172121406398 
-1.077395834071408 
0.2080318162516163 
-0.8676219808206549 
-3.676535331217949 
-0.4870437037761154 
1.254434451421061 
0.008330815963441192 
-0.6285873273663484 
-0.1258321311491483 
-1.686764303778296 
0.1867606693814971 
-2.31487335444402 
0.8348899931267421 
0.5025234317085822 
0.5162882266006471 
-0.4720679727164597 
0.6775982988475273 
1.830512534854105 
-0.9297550288143285 
-0.4609189412898229 
-0.3089484852650652 
1.246963616329366 
-0.7099729715297837 
0.6777132990969595 
0.2186217335338258 
0.9046233473220897 
0.2040645783634142 
-0.9790115234330131 
2.125036258071589e-17 
-2.178234773364786 
0.02026722968117305 
-0.4747109111649565 
-0.4720893245472579 
0.6487758541555961 
0.5233113816088424 
1.014473033263974 
0.01609156443712861 
-1.410435262233372 
-0.1464906821320687 
0.5492527478898249 
0.7122072010864625 
2.073426269819145 
-0.6827372939968539 
0.7305520694217682 
0.2106078597447698 
-0.2063350497502101 
-0.586328358857705 
-0.6697385170953273 
-0.2276638512011842 
-0.07618811511276195 
-0.9395035775354867 
-0.5587053807786307 
0.08545499316280586 
-0.3691135749407987 
-0.8546852360753362 
-3.53690658324289 
1.291443588727205 
-0.7090440174052423 
0.08215820318857643 
0.5543615694991101 
-1.257344875069189 
0.7514901624499168 
-0.03032922826248248 
-0.4093137190476026 
-0.3055718329840916 
0.1131662311597731 
-0.9009457640121067 
1.577613387211753 
-0.2837067652519789 
-0.5157006197574762 
0.1668382899005824 
-1.268562958356512 
-0.06950810508778728 
0.9219922761166892 
0.05822464753682409 
0.56318023197082 
1.169029324460647 
0.04875235448032145 
-0.02423384633713277 
-0.01789115223100652 
0.7813709982856017 
0.6819097610113621 
-0.697953430121818 
1.612940051370286 
0.9503842167099699 
0.06911736048170908 
0 
1.200023609441098 
0.03406446134814704 
-0.02474485466353322 
-0.01065684910424799 
2.277985213757193 
0.2308773175075273 
-0.4167781053371285 
0.7137151196597361 
-0.3594504358516863 
0.1341826947696914 
-0.06709597779664964 
1.360407515740801 
-0.5967892534035695 
0 
0.1252551908942352 
0.7910582711206715 
3.621658858436167 
0.8142715613810879 
0.2746090976166497 
1.280332890781326 
-0.07105611123338597 
0.4731671122191181 
-0.6498917946054366 
1.639221973010671 
-0.1471845009355023 
1.452808125344667 
-0.09149053926731404 
0.9349276505930348 
0.1702359002418312 
0.508797666854099 
-0.5334621549366583 
-0.7843885343303341 
0.1335188352864097 
-0.1438137078603075 
-2.978083689239719 
-0.1019479517930674 
1.730347341533793 
0.6994427813190409 
-0.7674584362146294 
-2.328728702950643 
-0.8851116871057894 
-0.006047131021896254 
-0.1456293618559335 
-0.1916456756053025 
-0.265369690233924 
3.416831443380752 
-0.127127041848748 
0.6891853397275767 
-0.8739701534656823 
0.3088842165795369 
0.6720964353814783 
-0.5897569528946542 
3.781167353226321 
0.1670528776461236 
0.7292734722070406 
1.407554215510118 
3.03532180142377 
0.8106793258175349 
0.3048641104386057 
-1.514590502325071 
0.5100895052621643 
-0.4974741056457068 
-0.4562187669238498 
-0.8552470436706179 
-0.1688666936514043 
-0.2595662293376172 
-0.005632592668177745 
0.9118409720171032 
-1.213833743516164 
-1.016351596429581 
0.3755800505788913 
2.12924313704639 
-0.6403950031806409 
-1.373155384135748 
1.573835292569257 
-0.2532452478783473 
-0.5951298989376943 
-0.03437706282181765 
-0.5567936728803595 
3.54583038157777 
-1.039024451321078 
-1.051711391428261 
0.251317343732912 
-1.132556257462641 
-0.8461983083171923 
0.3260630863885436 
-0.515771431114354 
0 
-0.5965657649000755 
-0.8780052315727203 
0.7250527013942983 
-1.175099077653725 
1.069673526882448 
0.1341238761198137 
-0.3586056433730426 
1.525649892431989 
-0.01998635440916692 
-0.7429369347478031 
-0.06254142227306488 
-0.7631297559950717 
-0.02595633011972252 
1.471472978627629 
0.07450438224719344 
-0.8030453691046804 
-1.063371952882683 
0.4822204772834087 
0.6755953885819839 
-1.119959705476714 
0.5960751445158484 
2.028737197662049 
0.1755885190731694 
-0.3772242322165397 
1.572483325916165 
0.5664795018835465 
0.7036943021266218 
-0.3131824183486321 
0.1029888771743745 
1.463172426702318 
1.705782869711887 
1.958319258965266 
0.854840816791909 
-0.4507023858083405 
0.8634347149125469 
-0.1401901438303461 
-0.5580770190560324 
0.2640530075800419 
0.2727919261246823 
-0.8285971997639686 
-1.671330958992089 
0.4380286936482593 
0.778797163785377 
-0.240933517423746 
-0.4852016456074482 
-0.3947990753230757 
-0.6780623267882133 
-0.3259996759051316 
-0.1682812155618026 
-1.006435105127506 
-0.4130260116783846 
-0.6968366150642091 
-0.2368563939818928 
-0.7132474806524524 
0.2747237859237941 
1.4238146708785 
0.5372115540126196 
-0.07308511106363311 
0.2805378641128865 
-1.020883588384224 
0.2609490290049269 
3.189356405491588 
-0.2642482300286936 
0.397354682648709 
-0.10335559657478 
-0.6059286070238378 
-3.191921058376229 
-2.920915115165085 
0.05837738458505743 
1.496515081123752 
0.6412457640724923 
2.532992986981049 
0.3186052668788061 
3.099596007392547 
0.3588482942551935 
-0.234835481352492 
0.8911827871964669 
-0.1250983778237524 
0.6061877744127524 
1.030377850477707 
-0.5840303154037125 
-0.2890977879223189 
-0.1950423503578559 
-0.3541036266857468 
2.463790240247499 
0.4553482910680857 
1.152503595214265 
-0.20658821204548 
1.390887174705341 
-0.8480960010351828 
-1.360227454691664 
1.728450758814 
0.8512950564393982 
0.8141185607111544 
-0.6639191480379062 
1.291996785824296 
1.732068827639684 
-0.4826939804323629 
0.9330392104980567 
-0.4221569671687828 
2.435527090063014 
1.638303391797504 
-0.2068645262268371 
-0.04113815376912521 
-0.2501626553990033 
-1.269124710069798 
3.152553120788109 
-1.163666029060249 
2.322167049596554 
0.2406974660900806 
-0.6568984346244313 
-0.5817454251314695 
-0.3350449939007657 
1.281651793719829 
2.455490923906026 
1.110043438434469 
-0.7823209744159104 
1.079638533110969 
0.5147846003663903 
-1.089047916084085 
-0.06127227755416902 
-0.1952359647313247 
-0.5971321916004676 
-0.2592012690948979 
0.004493775759092622 
0.8645862906994284 
0.6030364049457141 
-0.1439288174276971 
0.6331623584277131 
-2.715103788037662 
-0.1499712871559204 
-0.4042931509591762 
-0.6901254965469912 
-0.4241430599335765 
-0.1321127510437149 
0.08664233228891162 
-1.050171409565069 
0.8083873136232348 
-1.112011877840799 
-2.17951273628959 
-0.1303142025195614 
0.1096650841714772 
-0.7014720906834709 
-3.430424213094976 
1.518765809163519 
-0.9006509373540168 
-1.071276711732357 
-0.6374475983215492 
2.822705246991296 
-1.137044198752072 
-0.2455049991192865 
3.139384329884189 
0.02151244895569797 
0.251019767852907 
0.5978121334104141 
0.4695233972537823 
-1.049715580235113 
-0.786813161069754 
1.861521716332412 
-0.1713068785229463 
1.021090723089483 
-0.6914898353769996 
0.4693235994580974 
-1.346526025585532 
1.178932640367585 
0.3507397660519086 
0.0194201851336738 
0.1750374119312684 
-0.4194635362622882 
0.5224910002597921 
-1.104128033425795 
-0.1853870080535696 
-1.493183846569516 
-0.9349773365368015 
-0.6941515583633144 
-1.480997161892468 
-0.4701480851719314 
-0.2206990741540533 
-0.7847732151372615 
0.236720605535713 
-0.2439593123754263 
1.114378356747213 
-1.604902499220975 
0.6279255043047863 
-0.9685604388637469 
0.152267962530942 
-0.3498260307225172 
-0.4401728041986915 
-0.4923800055038439 
0.4760763731850473 
0.6967366359254475 
-1.269326049210449 
-0.3457672697219929 
-0.4096858608500065 
-0.4752765330226557 
-1.842395158115365 
-0.5513866206995228 
-0.01185163921864599 
-0.4735432543438758 
0.2805441179493678 
0.8855931002493578 
-0.8730796271257379 
0.0659185916167663 
-0.5832452067983055 
1.000128335475242 
0.3921142540893131 
0.4825234446755519 
0.2717609476982378 
0.2987505125156325 
0.2063047333393716 
-0.698858689528268 
-0.04705468983437963 
0.8999174577616099 
-0.1018589061396681 
-0.2340801150294737 
1.798342771715214 
-1.240074701494454 
-0.7195633569319662 
-1.800321976734041 
2.397178525760513 
-3.467210738766178 
-2.064017614632218 
-0.7187699694169872 
-1.113146260221141 
-0.2543094955936488 
1.612992812954334 
1.04320989504418 
0.7291385442180299 
0 
1.99926421847355 
2.93992402420551 
-0.5851632746779477 
-0.4193701491197365 
2.339413639042131 
-0.4324641024789505 
-1.537689546325782 
-1.710212821261575 
-1.137563066547604 
1.521821016655071 
-0.2769837908332473 
0.1450272835791601 
-1.120760350188585 
-0.9111527915656962 
2.734740609232451 
-0.8174692043068641 
0.7326655190646086 
-0.4709591429137822 
3.012354210019615 
-1.112839931590786 
0.7453069727447078 
0.6534979265277762 
-0.6822199592424593 
1.119826215112424 
1.305825553397808 
0.963880433074102 
-1.015955374478895 
-0.2069293366381471 
0.8199661415611558 
-0.05823680162864107 
1.111575181562599 
-0.3972522785754928 
3.088568428490987 
-0.5077096210870772 
0.3933008166152681 
0.3686772196338651 
0.3701432286321655 
1.045655961560605 
1.637248900990757 
0.6966049612031158 
1.059921877530448 
0.1954537592244369 
-0.5517652296705645 
-0.6085605889529176 
-1.29411900249217 
-0.7175729233271347 
0.2128103831804936 
-0.493158941508516 
1.600001393933704 
0.3433795649818574 
-1.86432032979512 
-0.02226863017749902 
5.070048110297083 
-1.553679837955312 
-1.632175509917409 
-0.2857542001177386 
0.3901222237493199 
-1.437231511034082 
0.2220209139539936 
-0.0636829653423288 
0.3018073696977058 
-0.9394449487712244 
1.320408373480309 
-0.8285486462481411 
0.7668875025470773 
-0.5237634380002033 
-0.4989938206576612 
-0.3115751985885868 
0.476576695435836 
-0.4288455189522742 
-0.2065873456070544 
2.5822702377918 
-0.2004134783160083 
-0.2407298965563419 
-0.4710473132425972 
1.733251116338116 
0.1093346182963846 
-0.03414207247322609 
-0.08037996080565314 
-0.7027252829273909 
0.5695614034575637 
-0.06555775558865518 
-0.2200473486854057 
-0.2084582233687874 
-0.5108585722914331 
-2.961056167207377 
-0.4972644506217974 
0.1917392736422764 
-1.125952092376143 
-0.4855998383909398 
0.1904502625864833 
-0.2203289128701009 
0.2851874628417537 
2.716147035312286 
-0.09447206732201519 
-0.7678449771944379 
1.195556487003071 
-1.231149060770946 
-0.7897455591273693 
-0.03101737366603428 
0.711223587055705 
2.325107006261566 
-0.1157791709850065 
0.182476600064045 
-0.8347026836695238 
-2.910568447302482 
0.2140272999071285 
1.08892366236643 
0.4080280074990995 
-0.09789451277022093 
0.1821336160665945 
1.555094417451383 
-2.295790449074802 
2.13821435954487 
-0.4485830296447475 
-1.762784480144556 
0.2256592262141482 
-0.1829282002323806 
-0.6434120237122274 
-0.3727693172807185 
-0.1031963167055629 
1.093903842505485 
-1.068151471928364 
-0.2664271486939807 
-0.01341115562639087 
0.1361717710720184 
-1.058565423266446 
-0.1146575222602131 
-0.5232015497050603 
-1.041695814981265 
-2.784501482532843 
-0.5316913270999692 
0.06174210091569152 
0.225005651857551 
1.4345998229088 
2.774356620255952 
-1.055398806940959 
0 
3.469446951953614e-18 
-0.05450513938071135 
-1.2125365623815 
-2.126037875896728 
0.7164537077828868 
0.8284894683958162 
0.9087424848943202 
-1.355860970695481 
3.538878414145985 
-1.11832936672616 
-0.06310260004302563 
-0.3858715478145513 
-0.9660633482635199 
-0.7725201142916807 
0.6535067892994894 
-0.3331350132080324 
-0.141629731256504 
-2.067685552036008 
1.628000564268313 
1.038388679238955 
-0.4002182453418102 
-0.2578270107787192 
-0.3000029148356275 
0.5691598334492375 
2.228768655013595 
-0.2249521700394771 
3.318672048077491 
0.006369874185504236 
1.478531024991474 
-0.2442984190854267 
0.8849520493561975 
-1.09408272804878 
-0.3351761053596496 
-0.508958966140032 
1.081883807352171 
1.830429201262131 
8.673617379884035e-19 
2.635777203778851 
-0.9106607415254059 
-0.1674100652022782 
-0.2665739000445341 
0.4154290148355055 
-0.3442166151592205 
0.1589477929107048 
-1.02126360306137 
2.670606845076663 
-0.8693618200934653 
0.5881453286374427 
0.3968285104504539 
3.212330576042328 
-0.297944896556708 
-0.9245967646113253 
-0.5159834983929622 
-0.5048338993147772 
-0.9452020763230495 
-0.3546631377028854 
0.1366576741822738 
-1.187802031243189 
1.854958649265963 
1.151116977805606 
-0.3593628710604628 
-0.8673295689302862 
-0.2729367550285526 
-1.153258392893019 
-0.9727576291399659 
0.06445238499615963 
-0.05779034813526773 
-0.5384068973140377 
0.8657525954660669 
0.1199421690514229 
-0.565146555679523 
-0.6377123269894011 
0.4057118201956422 
-0.2343175296191099 
-0.5723210404759896 
-2.582074080197871 
-0.8329370561626992 
0.3268081003737803 
0.6499229459343483 
-0.5737433319424705 
0.2417032551985821 
-1.014591655212132 
0.3717404531652403 
0.5799811193256078 
1.50081799041348 
-1.802251373816946 
-0.6975438138848418 
0.7294395085212029 
0.7333849768060977 
0.2515303303839533 
0.327502772463036 
-0.5918645732956587 
-0.3494647696055795 
0.1734036771652095 
-0.1538095603033548 
0.4525355562802861 
0.04611977974586077 
-0.06829327852311133 
-1.813889522715962 
1.247873477652633 
0.6646339801552813 
-0.118312283179682 
-0.8625454841696345 
-0.6646642315458098 
-0.8549356624143829 
1.517601006475854 
-0.7982791030850045 
-0.1248704040711338 
-0.5252769584603233 
0.7212707417658463 
1.514941963460674 
-0.3776635517597984 
-0.6367587853153762 
1.5084382996024 
-0.7906231866454184 
-0.8534690329219699 
-0.1241897906810126 
-1.158851994935884 
-0.2417281429352648 
2.10886001519427 
-0.4865987798100009 
1.131465766066296 
-0.6102953710257033 
0.9295893691751184 
-0.2442252353668755 
0.0152573403660256 
-0.2034115574431832 
0.5532573116038773 
1.783579288230247 
0.9087778646042474 
-0.2189863708764551 
-0.1288694442963893 
0 
-0.1104529419547934 
-0.01617670574790701 
-6.640738306473715e-19 
0.7213805723705768 
-1.891892323973837 
0.4582092380634692 
-0.6603101790504912 
-0.2710565787889692 
-0.207828606239408 
-1.423804005800165 
-0.1400926608226934 
-0.4613795787884508 
0.7579760527530082 
0.2549041273851284 
-0.1621222840145708 
0.4499787894840742 
-0.03757809158779805 
-0.7504478654750498 
1.24931758028058 
0.2380741676261089 
1.089313800813518 
0.3659224046315226 
-0.2675548692137947 
-1.122010219764848 
-0.6537200198046207 
-0.8134634625448598 
-0.6436624619784205 
2.021721160355766 
-1.563908572176707 
-0.05228557910066861 
0.5210148714302695 
-1.338984612332973 
0.2708917096840768 
2.704497311580791 
-0.08736975194956051 
-1.104149880575586 
-0.006077595531879532 
-0.1910626537929424 
0 
1.023713197921263 
-1.704507427392422 
-0.1604346042674544 
-1.003795336687312 
-0.5754264545838764 
0.2644436776061859 
1.033501791652667 
0.6038943909436628 
-0.250207406207673 
1.209319292598789 
1.542408045411311 
-0.9953378638064241 
-0.5050553813391093 
0.8788324605682957 
0.29601940502857 
-1.326665840269817 
-0.2374229910873037 
2.627816479808092 
-1.016151931193372 
-0.02107829997352698 
0.3187251742193272 
1.161351435718684 
0.4197308755273251 
0.6361216200964711 
-0.7340194725076299 
1.2393407672003 
-1.400875521251238 
-0.5352928627134236 
0.3875684419295525 
-2.095234529011683 
-1.631144322678419 
-0.047704532683532 
-0.1893012628154394 
1.387949291598835 
1.937885860908929 
2.563756818320911 
0.181647003913591 
-0.1573766041563676 
-0.3514416634223914 
0.158414737711102 
-0.5531117258955892 
-0.4498621762392315 
0.5495783003251753 
-0.6017557260432601 
0.7933329072339933 
2.142786439486061 
0.3237716937100654 
-0.5347776769846804 
0.5341087136752766 
-0.06147761691326647 
-0.8571373597114295 
0.06870478318719792 
-0.03114353778709653 
-0.00493619174236452 
0.6705749669368681 
-1.458515239591224 
0.7288633680004463 
-1.807268765342896 
-0.1459448968832094 
0.03544446964552617 
-1.860228949550901 
1.569044633022006 
-0.4698105792533405 
-2.077214117546684 
0.5296991791361354 
2.195803521038614 
0.5126136835048914 
0.12923985157939 
0.712181143649026 
-0.389005114691049 
-1.084943848112789 
0.4381354421705871 
-1.787986263633 
0.2044974033155162 
-0.1379946206888002 
-0.3774929535359968 
0.4417880791905153 
0.5224754489349412 
-0.04958975131766015 
0.3096825822440442 
-1.361143250071741 
0.5578038095862732 
0.3660132528934074 
0.1462672327756696 
0.7799761909048119 
-1.764670423682607 
0.2731072487699073 
-0.6070484362421888 
0.1553033031407495 
-0.4470637608253213 
-0.05578330125211755 
-1.792946917143819 
1.029101800581659 
1.086266047436217 
-2.069916298241542 
0.1260241563948757 
0.06381346331709599 
0.8548616514516006 
-0.1541113716781587 
-3.864694672014036 
0.3455487204965283 
-0.1731317156837785 
0.884409491069767 
1.50199978190659 
-0.3453318009617191 
0.4771816308172744 
-0.1725836452714515 
0.2020046700475214 
1.112813565690357 
-0.6834191417054682 
-1.091279998109144 
0.3942269965964031 
-0.2412951719083258 
0.3402524137674792 
-1.336857377747351 
-2.090812185193277 
-0.04549793789554449 
0.01151190250850309 
1.352773739146489 
-1.558889266435012 
-0.5817684390820825 
0.7195426706106343 
8.673617379884035e-19 
0.1979352458628335 
0.07604352955441603 
0.389613353947296 
-0.5732038687410029 
-1.215273059319017 
-1.831747270541561 
0.08524570582623217 
0.1074134964623777 
-0.1400555424061539 
0.7760606131459706 
-2.168404344971009e-19 
0.04511491079434177 
0.05282844196304572 
-0.5724575947616433 
1.629861074741499 
0.1970972471965035 
-0.05091216175880718 
0.5533435621879255 
0.8876987235054018 
1.04016752602352 
-0.5724183445637909 
-0.06785884141139292 
-0.1907935953338624 
0.1112326652720443 
-0.9222096319459278 
1.279066914250639 
0.02276761508509733 
-1.673376210224019 
-0.2333045567574497 
1.890263812822035 
-0.06654308404770276 
-0.7244501520810243 
2.082368224566151 
0.5139957250966457 
-5.422942576088277 
2.179976559404794 
1.882788032293166 
-0.1684269539827862 
-1.781832994460774 
1.408713423487 
-0.7509609222581567 
-1.19175070056383 
0.5813027758678421 
0.2509243276007091 
3.519737716583829 
-1.189495751520361 
-2.339259073170666 
-0.3237497129935608 
0.2362039680794984 
-2.841979239530696 
-0.4141409134018506 
1.176133276503069 
-1.327881971174325 
-0.2288921000974956 
-0.7733651875697909 
-0.54290846506974 
1.837435236799378 
-0.2909236140291698 
-0.1946104253063417 
-1.331203122058153 
-0.1884391719592862 
0.4408906344255132 
-1.195731482661436 
0.1020215415693827 
0.1615643948794088 
0.1330741341235545 
-0.4446350857770427 
0.495415164006902 
1.603273966983439 
0.8679699897833489 
-0.9464646424723823 
-0.9455429363906331 
0.9639044284389975 
0.9099428995210891 
-1.281499657332729 
-0.7275541825562947 
-0.09656114845415362 
0.509267761988728 
-0.05149221927638152 
0.7046770978426595 
1.107186936805828 
1.253979998026223 
0.3631650178084208 
-0.4077779053857866 
-0.81356529179375 
-0.2900305736953692 
-1.430116951906795 
1.189808897434189 
-1.211644764430593 
-0.213460075401004 
-0.01404263377929655 
0.2525680452878536 
-1.148947011113259 
0.7941091561637945 
-0.7043803597138905 
0.02012975252175536 
-0.03143935913749284 
-0.7119028806215938 
0.1346100088678401 
0.114445875600719 
-0.08657809786758712 
0.1471754158806663 
-0.3540939784205751 
-1.215747958003337 
-0.1138455995332175 
-0.7238811044079062 
-0.2085653154944459 
-0.2634948674305173 
1.382122946942695 
-0.1507076920209434 
1.95884485347409 
-1.020171420446558 
2.031049048452993 
-3.252606517456513e-19 
0.2661673312526068 
-0.69832424051387 
1.760742786162079 
0.2785657241162546 
0.7732108709347744 
-0.9438116221362229 
1.257573692188735 
-0.5384088847918372 
-0.6111142188180581 
-0.6372529585183454 
-0.1508497227021544 
-1.22406597075978 
-1.428684108367387 
0.440278101641662 
0.5354883659121522 
2.758789587581282 
-0.1031160925046157 
0.3704835021516019 
0.2569276043358215 
0.1142135863098128 
-0.8339540596500196 
0.7831953500721147 
0.1326878302448827 
-0.8395961318347284 
0.1752725001604473 
2.289431334945863 
-0.9370735880957923 
1.677516087280261 
0.6735146180731389 
-0.4093254629983726 
1.090528808573315 
-0.6706956960295837 
1.012057014230186 
-0.3190591989732582 
-0.8809044194238702 
1.060802000763064 
-1.470112378927576 
-0.5470245707215328 
0.7160816580494477 
2.251152063494961 
-0.3517365385843009 
0.1942744060742615 
0.4110162470611234 
-0.1793690137793787 
0.4689809946310725 
0.2135334934641002 
0.1099966404495803 
0.3524098177297226 
-0.576162793147694 
-0.6846230541348649 
0.3889750674867119 
-1.199652480289652 
-1.913054580391407 
0.2161412572428731 
0.8079018984699256 
0.5648460550012001 
1.166889329932953 
-0.04138801397305196 
-0.7389301606537217 
-0.6452872399072548 
0.6921784309529696 
-0.9279605967676816 
-1.280690279500807 
-0.3406511069694808 
-0.2493718849741277 
0.03768950123324385 
1.191187163004242 
0.2190015394946539 
-0.1017803514248459 
-1.053258383184211 
0.4364375864801476 
-0.4982357271943409 
-1.168239786467682 
0.2420071625286276 
0.4240840612060788 
0.3872307301360507 
-0.3922180995016241 
-0.2822572546614331 
-0.2983791892828375 
0.0376881096907184 
2.355037522289411 
-1.159686950713133 
-0.6279210057415824 
-1.787323473335763 
0.2469014621791405 
-1.408975566420922 
0.3614168311947786 
0.3620303736901068 
2.230913042356117 
-0.5024447949188774 
-0.03156132907573852 
-0.4161593472766772 
0.2471290866987082 
-0.3874660862872049 
-0.4145417872412 
3.020883980321928 
0.235142608023632 
-0.1499781422770347 
3.556406519057826 
-1.077283801712719 
1.218938131916478 
-1.192182856972285 
-0.4521354096128111 
-2.832004677147364 
1.261786687704929 
0.4625019007342249 
-0.6801764186783086 
0.300581566496974 
-0.1529416399801061 
-2.731702058453342 
0.5991650380862166 
-0.4729570309632978 
0 
1.755960062250246 
1.029869100690428 
-1.184768332767821 
1.479746909290207 
-0.008598267563716374 
0.9794744446917784 
-0.4544447651315451 
0.0520683895159028 
0.3256237904291425 
-0.06810070412282618 
0.1200239393746392 
-1.5380296102739 
1.255639191507119 
-0.2406075908510911 
-0.5198219201410156 
-0.308798706150052 
-0.1362210569661393 
0.8455972675372737 
-0.9419866864844674 
0.2096897119876796 
-1.719403426700911 
0.7122356217788272 
-0.331219093200057 
0.3666171308558532 
-0.7130464707883907 
-0.611467838186264 
2.280512593726754 
0.03180750128757055 
1.834199430774499 
-0.3595151794937409 
0.2780440989155849 
0.3142805202920259 
-0.4893385687864262 
-0.3353030935621029 
-0.5762077131826466 
-0.9276659224345257 
-0.6171187723609566 
-0.7965251531443674 
-0.1025915149043688 
-0.1192243962499085 
0.2455159639799886 
0.3949662477682025 
-0.3293991942236134 
2.369876147796427 
-0.3091914347316159 
0.6521726632049136 
-1.167240531228444 
1.099786123367875 
-0.2894469472914666 
2.385650890366133 
-0.2958223564185674 
-0.2686127068560836 
-0.3983745960710315 
-0.3710311912771123 
-0.1203377155916219 
-0.6938910562840167 
0.5347611559129355 
0.3598252992937724 
0.2724248707017122 
-2.406779417839753 
0.09425556016043111 
-0.9737876535709985 
0 
0.3805479577620773 
-0.4303566129616899 
-0.8656198687487666 
-1.862841310008995 
-0.4489559037758574 
-0.7419589661875206 
0.1456998941672965 
0.4977083691391135 
0.1169752468161739 
0.008891030593280747 
-0.5597212277489136 
1.312311452192805 
0.2681118308754215 
0.2816080353304922 
0.4328675174886901 
0.6463599292927625 
0.2247112642254096 
1.394330227154445 
1.77679066723832 
0.04802959524784937 
-0.6089566475700744 
1.538190897667097 
0.6004282936325568 
3.029999520680644 
-0.04319153935059954 
0.5731811108048563 
-1.68005087119779 
2.494993010005238 
-0.004879723272474535 
0.4079857395610215 
4.138751505167373 
-0.2818638482348004 
-0.9006407947465872 
0.5911068713553002 
-1.138812411243782 
0.1828794771500942 
0.8415895972619086 
0.1747254123153603 
-0.1764215475897488 
-1.333399236312362 
-0.2855570970526102 
1.884431957757082 
-2.613752903275166 
-0.2143236783520042 
0.5319506438882703 
-0.8418757804906625 
-0.7526156602649503 
-0.08985173800213662 
-0.1673566147433213 
2.416902893650055 
2.205065649454562 
-0.7850323173948519 
0.3770979780455092 
0.9536729343179527 
-0.4240158106504169 
0.5235116057678114 
3.825058822163804 
2.433768283248496 
-0.07063167386916042 
-0.1869409297350448 
0.5680963794266203 
-0.1218324155072048 
-1.114854775738853 
-0.03849805106009924 
2.713546142403429 
1.383681289471596 
1.070096426980147 
0.3185403362454232 
-1.503302845261072 
0.5642082592290291 
0.01851825405584969 
1.596434945317793 
0.8319616211478851 
-2.191626566302141 
0.2324976199018868 
-0.6003994129480192 
-1.695478996981888 
-0.437411264521698 
-0.1592811447653644 
1.617016019509556 
-0.6753496164375947 
0.8664682337859375 
-0.6897927823579121 
0.4666659657531345 
-0.3052921788777491 
1.359761182444731 
-0.3598671234032959 
-1.206464777415853 
0.3651607273967593 
0.3423035855150436 
-0.433256832226413 
-1.295227980452045 
0.1824200521169695 
-0.7472650376661474 
0.8682383746990557 
0.09893604322972362 
-0.6588828613163797 
0.5361023200857173 
0.6804398827998568 
-1.863304305615327 
0.3000137839916697 
-0.6974581417662629 
1.419245708549091 
0.7734307668656101 
-0.4967875067007129 
0.376708725690337 
-0.968273752969442 
-1.050429568901421 
1.018080188701648 
0.3383688034147619 
-0.8977554325480998 
0.2939477407987467 
0.04417957533275364 
0.2629449018572584 
0.5168946611104525 
0.3341137786456887 
1.686605405731721 
-0.08050637717616425 
-0.7257531220052237 
-2.11724813627426 
0.7768603497689328 
-0.170846180678325 
0 
-0.6045197010180001 
-0.7271198386476933 
0.7652657479131755 
-0.2879953576572766 
-0.6221845545359654 
-0.177219241274222 
-2.137835872528592 
-0.3402152664888147 
-0.4660578000487172 
0.2337418022663973 
0.280030009933845 
-1.39941953321426 
-0.9586822067676188 
-0.7769221507676054 
-1.215886972397622 
1.702346979213416 
1.761817248135998 
-0.06853880095691618 
-0.009019097462057079 
0.1470016314591688 
-0.8521996417182679 
0.0353084006464926 
-0.4013415796764399 
0.335614554390751 
1.474349257667045 
0.2191495342210102 
-0.1788632229840852 
0.5225832481846869 
-0.7098393135280942 
-6.722053469410127e-18 
-0.5120825742018597 
-2.028398829783976 
-0.5550987084168978 
-0.3734689696191727 
0.945760976151053 
-0.8851196840119968 
-0.1130302695363104 
-0.254915519274022 
-0.5271429201795912 
2.332184782800117 
-0.6640011674587071 
0.447498596428486 
-6.071532165918825e-18 
-2.461744708523617 
-0.8592851395286248 
-1.012056425850076 
-0.8109707909188315 
-1.07912748105192 
-0.5923821861329542 
0.07919537424561997 
1.932449680694371 
-0.4747909117444834 
-2.15136167327506 
1.868105943863326 
0.5387924146348185 
-0.2378235977262875 
0.01967243712346127 
-0.9867670199434619 
5.204170427930421e-18 
-0.2947416597779386 
-0.3501510787504847 
-0.192870072671647 
1.391531814363992 
-1.125607616782005 
-0.4524987067370557 
-0.1577130921761664 
-0.3438847667702216 
0.7720609516601673 
1.419442499139482 
-0.4683833441119352 
0.7879310747963826 
0.5872519133909165 
0.5244187680593281 
0.6610833436437037 
1.551009055552682 
-0.5298207093480721 
1.732740260765654 
-0.6817689665612054 
-0.7273217487729814 
-0.3040656513460655 
-0.2565017289873742 
-3.390985620971714 
3.035766082959412e-18 
1.520953085322788 
-0.4798491607960397 
0.8686532503320548 
-0.2917694700164055 
0.05136773760851305 
-0.09904571876496479 
-1.944669635357395 
0.1121484558190619 
0.3505308303632141 
-1.137275001380968 
-0.2257394929516263 
-0.3727791538785479 
-0.4860956663083463 
0.5300039250798788 
-0.05960167710332482 
0.27692069091456 
0.5256590128000113 
-0.3958336263203638 
0.972141941200562 
-1.005641922771599 
0.4690388068616684 
-1.67726764698593 
0.7683268265812905 
-0.4324100770221525 
-0.2017128954880857 
-0.2646970561975612 
1.073980323023366 
0.1130385180949626 
0.4330322597796418 
-0.6748989006942057 
1.04473394780718 
1.314431784730754 
0.01502109806973393 
0.6544092270881176 
-1.16185686034322 
0.463828250388949 
0.3136422833381969 
0.3328825262185704 
-0.583328803940184 
0.1073215100528432 
1.407420952973208 
0.2065542521977786 
-0.618196378762097 
-0.08907492482067347 
0.5134897838805978 
0.05626562838808618 
0.1081608863312581 
-2.602085213965211e-18 
0.0103849649542917 
3.123292052073517 
-1.042699561197957 
-0.04536841794659884 
-0.3838146446031708 
0.07889283634976695 
-0.01034144672758604 
0.403195955676868 
1.281094025510108 
0.03571003033165454 
0.1114026680110305 
1.547911636753148 
-0.02405343661853618 
-0.4135890283666014 
-0.2826020595190527 
0.2901593709920776 
0.5891443878039797 
-0.5676640036983728 
1.03894757093275 
-0.4421107905471385 
-0.4002449682484372 
-0.9371224077169907 
-1.742216546488279 
-0.5073194217795567 
-0.008851798895749351 
2.428482982647461 
-0.7332570601159143 
1.032303744339447 
1.138761284324419 
0.3713655231484713 
0.1513740580110654 
-0.3536583810263163 
-0.2196845995697979 
0.9907781693453522 
0.1938433975115091 
0.2114801180859406 
0.6957096221027684 
-0.2765310208774987 
0.1394840451712726 
0.2216048489450434 
0.2821617957001044 
1.271895667100129 
1.09864235107513 
-0.5808113395408114 
-0.2878832953497852 
2.995224937407163 
0.8073315590602064 
0.6736726733634104 
0.459934956765392 
-0.2895609322764258 
0.6433559499307556 
-0.3617837719127591 
1.689648796093272 
-0.7777565248106498 
0 
-0.7092003506144641 
0.104455956602869 
0.5310102558396225 
0.6398734586832598 
0.2905050711366545 
0.3545649486486744 
1.684783202550894 
-0.1748001665851649 
-0.4917031336401536 
0.7930568223479991 
-0.3637931206785918 
0.3528391878521998 
0.08524245072072932 
0.05776735104129447 
0.7088360353297392 
-0.1343751112816556 
0.9184100577863219 
0.7673477671996699 
-1.539481983578062 
0.2349802779169749 
1.007799620502343 
-1.403693774760495 
-0.5351008175004374 
-1.321380732057589 
0.8647790662069179 
1.269522671548497 
-0.6480754837592863 
1.99058650897048 
-1.752034857985324 
1.088042237436297 
0.6635390294093855 
-1.079733252234381 
-3.078154241187393 
0.6831635300235197 
-0.4422200319829426 
0.1163467029982645 
-2.190315038969871 
-1.648583936240777 
2.008575250888742 
0.5395668591873037 
-1.0515095328703 
-0.1447938642410365 
-0.07274556684768275 
-0.6899584211560574 
1.460063468310826 
1.700950963031153 
-0.7418959171327865 
-0.8708455182080059 
-0.05396755982687384 
0.6932453934932775 
0.4607692268178282 
2.168404344971009e-18 
0 
-0.07271915381515218 
1.14925507061973 
0.2208993329075008 
0.4049432358948766 
-0.8282354452769537 
-0.1854248699565879 
-1.385572625623703 
-0.4023863380997876 
-1.239807380236036 
2.897899016338126 
0.2054755884543172 
-0.8720054131279089 
0.3528543867321434 
-0.7379393258789878 
-0.274379873213388 
-1.47625984578425 
1.598731571811309 
0 
0.4110145632855135 
-0.951114958132843 
-0.9929666299302212 
1.858930989709737 
-0.1523261997980513 
-0.689454587382448 
-0.7604288219425928 
-0.4353224494448198 
2.068661534099273 
-0.7925124145792543 
0.6480966007458588 
-0.001727936148247696 
0.4695489572034809 
0.6353625882013113 
0.8314108759997864 
-0.6070909049127304 
-2.902703146197955 
1.322332293007145 
-3.151104192013799 
-0.9344457870168185 
-0.6847329822781627 
0.8826428217123004 
0.5520601959114755 
-0.03867576790551154 
-2.033584937054263 
0.9671531478814019 
-0.174693868714383 
4.230934925605091 
0.342677108278188 
0.9512690335017585 
1.357162225071715 
-0.01156743885440076 
0.4086801922177093 
0.322222683331394 
-0.7824959352755594 
0.09729680476003835 
0.03794811993239278 
1.415321613034733 
0.5121490810540922 
0.83101409391028 
1.96952001112609 
-0.8005940405862191 
-0.02960736566805954 
1.343161942742916 
-1.586276794486078 
0.0810053022295026 
0.8705699284148486 
-1.473102368667614 
0.6233395807044922 
1.670254881709538 
-1.411194481585147 
1.057850615029999 
-0.307977915274106 
1.525454491597528 
-0.5161439494951696 
1.088233928979662 
-0.6306975499089816 
0.2980013323588841 
-0.61916114091332 
-0.6619077987018122 
0.5758173567066559 
-2.331792635556807 
-0.04679913910049151 
0.01903640023042997 
-0.3478606742139313 
0.1823437178843227 
0.3391013564364259 
-1.848378916331833 
-4.373779655522923 
0.6006426246532023 
-0.3279091092447381 
-0.1102946185734063 
-1.00011072877382 
3.325293158128797 
-0.4947500853939147 
0.9114293544819745 
-0.4907708415785568 
0.5172538511470631 
-0.4287571240673926 
-0.08108617866567315 
-1.299369079387024 
0.2891722004095712 
-1.561218259650233 
1.358910012389574 
1.212686690349138 
0.78237666031844 
0.1283951484403939 
-0.1998536651455508 
0.8988904190994768 
2.069521487688538 
0.3848462179678062 
-1.319977348774268 
-0.9819180262339721 
0.7285334548643457 
0.07025045005936531 
-0.9659022353624648 
-0.003296396113940116 
0.2992648270457636 
0.1162213352562515 
1.070859148712163 
-0.9762435540376366 
-1.060263373408202 
-9.82287168271867e-17 
1.064386127789171 
-0.01804803608646577 
0.3920467502214485 
1.379693845018336 
0.6876832531359225 
-0.6482320776378006 
-2.729164365611339 
-0.068047893269556 
-0.6684330125813009 
-0.9092104102809101 
0.2766135015911614 
-0.3353984190171309 
-0.03755874766725472 
-1.052424096222405 
-0.3402850557702394 
0.2295351171979987 
2.054095964995922 
1.820163282295432 
0.8211366829548687 
-0.9492073170744072 
0.7517576567015806 
-0.1312457666182827 
0.6952886126455901 
-1.582490477572367 
-1.309904292340489 
-0.3751567887855092 
-0.9275053131244795 
-0.1961683590624812 
-0.3142606294438082 
1.464910261138725 
0.6465071101274078 
1.723565208348409 
-1.03457285625519 
-0.2973586685091562 
1.437314088563107 
0.4602848412907978 
-0.09881499948069365 
0.1693551412980444 
-0.2385334129724587 
0.8180976037341086 
0.8503332848775949 
2.236181358697448 
-0.6281374465943144 
-1.309280402825295 
0.002430973726201787 
-0.5544134080566946 
-0.0368858015057341 
-1.941804386327695 
0.8363190316782816 
-0.1397050260549556 
-0.6910545255999699 
-2.368220858665631 
1.191177522482262 
-0.2754177335839543 
-3.302567801829448 
-0.180473497662506 
-1.384890257956588 
0.9403442907194844 
0 
0.02907927866989567 
-0.6976939142138159 
-0.5146286367885311 
-0.2798826211117942 
0.3012805950943737 
2.270589137161294 
-1.74762776511723 
0.3165850262292954 
-0.9928420963427915 
-0.1179098276861502 
-1.449265056866865 
0.1760069370272503 
-0.5601096350903342 
-0.5786498653043024 
-1.463295964837918 
-1.173510240724649 
-0.3215439519924582 
0.3467889607537203 
-2.455421273934369 
-0.2845920381640363 
-0.9713050058820309 
-0.04633804712435502 
-0.3166855246640705 
-0.2827931950662753 
-1.442501302332538 
1.731476878336552 
1.743228097980853 
-0.7470943069606213 
0.3683917543593675 
-2.021496456958987 
-0.6210503502920466 
1.506453460514841 
-0.4790571122891845 
-1.851568665964668 
0.657028436611389 
-0.2512832197148033 
-0.03949695908252701 
0.4309654330160108 
-0.3408620388255416 
0.6067026153556146 
-2.028666863960061 
0.04950550403582631 
-0.3090022281555657 
-0.004901260873056035 
0.1818387907258745 
-1.083929622427088 
-0.207957562397464 
1.283312948511349 
-0.1272094465958245 
1.038574018617678 
-0.03443062391462431 
-0.5492590201206261 
0.8552546906688161 
1.283352267444805 
0.6979228231274475 
-1.45807844889677 
0.7440895987990599 
-0.005790499920585009 
0.9839681568493811 
-1.211495384354208 
-0.09512990689637897 
0.03488618426693773 
0.6562293037060358 
-0.2559593800467994 
-0.543396372875441 
-0.074482913129736 
0.5920527494738774 
1.926076280172684 
-0.7679629345614317 
0.1123974880409261 
-0.3214946966491413 
0.7109058874189084 
-0.185586362458971 
-0.9270275250059646 
-0.3987503750432143 
-0.262147208004662 
-0.6228186164225984 
0 
-0.05631106974943759 
-0.08765996659759225 
0.8027154638982453 
2.151878454459214 
1.236129110327778 
-0.5835867037945055 
-0.3604623254731211 
0.02574135039727594 
0.2005083127061269 
2.461825682010513 
1.23214099898967 
1.039964301979336 
3.519508315738016 
0.3698680263260531 
1.892257260278166 
2.264596989400788 
0 
-0.1192655768979628 
-0.6643535208052507 
0.1250020989377113 
4.546903510750114 
-0.1339912691244613 
-0.6019958461929116 
-0.2409588664756035 
0.8987643633242817 
0.5218009198082814 
-0.697415549498501 
1.8281156747245 
0.1123423511347498 
0.9530576916786344 
1.573329814824655 
0.4069440439250289 
0.7951021614508845 
-0.1374030142695489 
0.2866915901975321 
0.2590947193456649 
-0.6949870257499721 
0.8829654705044954 
0.1024552761723637 
1.60843482403562 
-0.05129943128493365 
2.291646653203756 
-0.3495130931762619 
-0.8569541916288835 
-0.8640278385941353 
5.204170427930421e-18 
0.2622175306414027 
0.124235476864604 
-0.0723715675038572 
0.3890566229822968 
-0.1683849447472754 
-0.653473782414379 
-0.02080677522270652 
-0.5978442677190225 
-0.4217766071250615 
1.667094787519092 
0.7372674598165831 
0.4475376419967307 
-0.2003313994378188 
0.6572744123929166 
1.151646619166805 
-0.2239021723435813 
-0.07942870421228923 
-0.06817655858267962 
-0.6499995983948013 
-0.03215504041469755 
-0.2067815574677818 
0.09233347547561493 
-1.42400915643156 
0.07657988551458286 
-0.4660540962832369 
0.2768410460767279 
-1.267674616323978 
-0.5929993196477352 
-0.338844466999068 
-0.2539040078915241 
-1.461642023673368 
0.3988305296313391 
2.304637118949539 
-0.09399987387631874 
-2.361080710588101 
0.6793971572651514 
-0.06822966306543257 
0.2249805295121398 
1.847587896363672 
-0.2795967059470707 
1.240558585970301 
0.9990590798483258 
0.4300575237107476 
1.107696977856884 
-0.1109904409904977 
-0.2231811901222411 
-0.08434519170553165 
-0.07725809595432652 
-1.558949124577577 
-1.247446678944345 
-0.4952423638953717 
-0.1720017653381736 
-0.9500498786935581 
0.05202393260920424 
-0.4620596141436808 
1.162296363347373 
0.413535030291753 
-0.02012878718573786 
0.6362565671427676 
0.04316645395009962 
0.7242909804310552 
4.091731399978558 
-0.01334009600988351 
-0.3178015192358569 
-0.05658198286566109 
